{"learner":{"attributes":{"best_iteration":"104","best_score":"5.3602306303083385"},"feature_names":[],"feature_types":[],"gradient_booster":{"model":{"gbtree_model_param":{"num_parallel_tree":"1","num_trees":"305"},"iteration_indptr":[0,1,2,3,4,5,6,7,8,9,10,11,12,13,14,15,16,17,18,19,20,21,22,23,24,25,26,27,28,29,30,31,32,33,34,35,36,37,38,39,40,41,42,43,44,45,46,47,48,49,50,51,52,53,54,55,56,57,58,59,60,61,62,63,64,65,66,67,68,69,70,71,72,73,74,75,76,77,78,79,80,81,82,83,84,85,86,87,88,89,90,91,92,93,94,95,96,97,98,99,100,101,102,103,104,105,106,107,108,109,110,111,112,113,114,115,116,117,118,119,120,121,122,123,124,125,126,127,128,129,130,131,132,133,134,135,136,137,138,139,140,141,142,143,144,145,146,147,148,149,150,151,152,153,154,155,156,157,158,159,160,161,162,163,164,165,166,167,168,169,170,171,172,173,174,175,176,177,178,179,180,181,182,183,184,185,186,187,188,189,190,191,192,193,194,195,196,197,198,199,200,201,202,203,204,205,206,207,208,209,210,211,212,213,214,215,216,217,218,219,220,221,222,223,224,225,226,227,228,229,230,231,232,233,234,235,236,237,238,239,240,241,242,243,244,245,246,247,248,249,250,251,252,253,254,255,256,257,258,259,260,261,262,263,264,265,266,267,268,269,270,271,272,273,274,275,276,277,278,279,280,281,282,283,284,285,286,287,288,289,290,291,292,293,294,295,296,297,298,299,300,301,302,303,304,305],"tree_info":[0,0,0,0,0,0,0,0,0,0,0,0,0,0,0,0,0,0,0,0,0,0,0,0,0,0,0,0,0,0,0,0,0,0,0,0,0,0,0,0,0,0,0,0,0,0,0,0,0,0,0,0,0,0,0,0,0,0,0,0,0,0,0,0,0,0,0,0,0,0,0,0,0,0,0,0,0,0,0,0,0,0,0,0,0,0,0,0,0,0,0,0,0,0,0,0,0,0,0,0,0,0,0,0,0,0,0,0,0,0,0,0,0,0,0,0,0,0,0,0,0,0,0,0,0,0,0,0,0,0,0,0,0,0,0,0,0,0,0,0,0,0,0,0,0,0,0,0,0,0,0,0,0,0,0,0,0,0,0,0,0,0,0,0,0,0,0,0,0,0,0,0,0,0,0,0,0,0,0,0,0,0,0,0,0,0,0,0,0,0,0,0,0,0,0,0,0,0,0,0,0,0,0,0,0,0,0,0,0,0,0,0,0,0,0,0,0,0,0,0,0,0,0,0,0,0,0,0,0,0,0,0,0,0,0,0,0,0,0,0,0,0,0,0,0,0,0,0,0,0,0,0,0,0,0,0,0,0,0,0,0,0,0,0,0,0,0,0,0,0,0,0,0,0,0,0,0,0,0,0,0,0,0,0,0,0,0,0,0,0,0,0,0,0,0,0,0,0,0,0,0,0,0,0,0],"trees":[{"base_weights":[-4.791314E-3,-2.8030267E0,2.147508E0,9.443596E-1,4.04144E0,-4.38861E0,-1.5216688E0,5.4940386E0,2.9102817E0,-7.5918174E0,-3.9003947E0,4.5477643E0,8.095077E0,5.985999E0,2.5389674E0,4.4370973E-1,1.9691384E0,6.3895774E0,-1.6865325E-1,-1.8406696E0,1.11686476E-1,-4.862245E0,-3.2709525E0,-5.266944E0,-9.9720484E-1,5.9208866E-2,2.5138742E-1,5.425256E-1,-1.8786255E0,-4.4957676E0,-1.224215E-1,-3.1652203E-1,-3.9673421E0,-1.8296522E-1,1.8165937E-1,4.027246E0,2.3293777E0,4.357684E-1,1.6771269E-1,1.0519678E1,5.9056E0,-3.0357143E-1,-2.7830582E0,-5.6096277E0,-5.0219417E-1,2.492934E-1,6.759668E-1,-6.2081127E0,4.31722E-1,3.467872E-1,1.0789193E1,-2.9788062E-1,-9.368799E0,-2.785043E-1,-3.026043E0,-1.653712E-1,5.383204E-1,3.8490552E-1,2.4320643E-1,2.5079998E-1,1.02654725E-1,-8.818905E-3,2.1977374E-1,2.2324142E0,1.5613918E-2,5.828157E-3,-3.9593905E-1,-3.8159433E-1,-1.217396E-1,-2.4235978E0,-1.4469197E0,-4.161409E0,-1.9949253E0,-1.1795879E-1,6.465596E-1,-1.6052481E0,1.03611685E-1,-3.695706E-2,-2.442408E0,-5.7375044E-2,4.6157888E-1,-2.8836983E-1,5.167796E-2,1.3296861E-2,-1.3676484E-1,5.597024E-1,-1.2924918E0,-8.517067E-2,3.5035965E-1,1.9782907E-1,2.3963174E-2,8.8624194E-2,3.3510199E0,4.4064364E-1,1.4623459E-1,-2.4068302E-1,-3.224355E-2,5.652231E-1,1.02892384E-1,-2.3698814E-1,-5.0073147E-1],"categories":[],"categories_nodes":[],"categories_segments":[],"categories_sizes":[],"default_left":[0,0,0,0,0,0,0,0,0,0,0,0,0,0,0,0,0,0,0,0,0,0,0,0,0,0,0,0,0,0,0,0,0,0,0,0,0,0,0,0,0,0,0,0,0,0,0,0,0,0,0,0,0,0,0,0,0,0,0,0,0,0,0,0,0,0,0,0,0,0,0,0,0,0,0,0,0,0,0,0,0,0,0,0,0,0,0,0,0,0,0,0,0,0,0,0,0,0,0,0,0],"id":0,"left_children":[1,5,3,15,7,9,19,11,35,51,21,13,49,17,25,85,63,39,-1,27,61,23,29,31,33,-1,-1,-1,69,53,-1,-1,41,-1,-1,37,59,-1,-1,45,57,-1,43,47,65,-1,-1,67,-1,-1,97,-1,99,-1,55,-1,-1,-1,-1,-1,-1,-1,-1,91,-1,-1,-1,-1,-1,71,75,95,73,-1,79,77,-1,-1,83,81,-1,-1,-1,-1,-1,89,87,-1,-1,-1,-1,-1,93,-1,-1,-1,-1,-1,-1,-1,-1],"loss_changes":[4.7814723E4,7.0126855E3,1.0225637E4,1.4079353E3,2.8644512E3,2.4125215E3,9.946455E2,1.8784746E3,6.359287E2,5.482129E2,8.104531E2,1.6168008E3,5.57917E2,1.2409131E3,8.051958E2,3.7126825E2,3.9135938E2,6.2510254E2,0E0,7.827827E2,3.979241E2,8.2824414E2,7.654346E2,7.432754E2,6.463128E2,0E0,0E0,0E0,3.7462988E2,5.465625E2,0E0,0E0,6.0550684E2,0E0,0E0,9.860991E2,4.2122974E2,0E0,0E0,5.838003E2,5.141553E2,0E0,9.6587085E2,5.7744995E2,3.903206E2,0E0,0E0,3.7794946E2,0E0,0E0,3.621377E2,0E0,3.617539E2,0E0,6.8451294E2,0E0,0E0,0E0,0E0,0E0,0E0,0E0,0E0,3.6806274E2,0E0,0E0,0E0,0E0,0E0,5.2432764E2,5.0104028E2,3.663545E2,6.153154E2,0E0,4.7109863E2,6.0602954E2,0E0,0E0,4.060791E2,4.5765857E2,0E0,0E0,0E0,0E0,0E0,4.244322E2,4.345886E2,0E0,0E0,0E0,0E0,0E0,4.410735E2,0E0,0E0,0E0,0E0,0E0,0E0,0E0,0E0],"parents":[2147483647,0,0,2,2,1,1,4,4,5,5,7,7,11,11,3,3,13,13,6,6,10,10,21,21,14,14,19,19,22,22,23,23,24,24,8,8,35,35,17,17,32,32,42,42,39,39,43,43,12,12,9,9,29,29,54,54,40,40,36,36,20,20,16,16,44,44,47,47,28,28,69,69,72,72,70,70,75,75,74,74,79,79,78,78,15,15,86,86,85,85,63,63,92,92,71,71,50,50,52,52],"right_children":[2,6,4,16,8,10,20,12,36,52,22,14,50,18,26,86,64,40,-1,28,62,24,30,32,34,-1,-1,-1,70,54,-1,-1,42,-1,-1,38,60,-1,-1,46,58,-1,44,48,66,-1,-1,68,-1,-1,98,-1,100,-1,56,-1,-1,-1,-1,-1,-1,-1,-1,92,-1,-1,-1,-1,-1,72,76,96,74,-1,80,78,-1,-1,84,82,-1,-1,-1,-1,-1,90,88,-1,-1,-1,-1,-1,94,-1,-1,-1,-1,-1,-1,-1,-1],"split_conditions":[-8.811214E-1,-4.4418917E0,4.029394E0,2.0439596E0,8E0,-1.11159935E1,1.4E1,7E0,-3.237152E0,7.717546E-2,9E0,3E0,8.29677E-1,3.4470737E-1,4.5475513E-1,9.182768E-1,9.2632395E-1,3.0738396E1,-1.6865325E-1,1.97918E0,2.3E1,9.5910263E-1,-8.660254E-1,-5.4181194E-1,4.7753587E-1,5.9208866E-2,2.5138742E-1,5.425256E-1,4.878084E0,3.134996E1,-1.224215E-1,-3.1652203E-1,-7.1013504E-1,-1.8296522E-1,1.8165937E-1,-8.660254E-1,-9.917227E-1,4.357684E-1,1.6771269E-1,1.2246469E-16,-8.866803E-1,-3.0357143E-1,5E-1,7.5985103E0,1.0424229E0,2.492934E-1,6.759668E-1,4.3033695E0,4.31722E-1,3.467872E-1,9.955458E-1,-2.9788062E-1,-3.5395503E0,-2.785043E-1,9.4724447E-1,-1.653712E-1,5.383204E-1,3.8490552E-1,2.4320643E-1,2.5079998E-1,1.02654725E-1,-8.818905E-3,2.1977374E-1,3.145551E0,1.5613918E-2,5.828157E-3,-3.9593905E-1,-3.8159433E-1,-1.217396E-1,1E1,1E0,3.3366945E0,2.5881904E-1,-1.1795879E-1,4.933806E0,-3.9223847E-1,1.03611685E-1,-3.695706E-2,-1.2915285E0,-1.8409321E0,4.6157888E-1,-2.8836983E-1,5.167796E-2,1.3296861E-2,-1.3676484E-1,-3.189861E0,1.0568535E1,-8.517067E-2,3.5035965E-1,1.9782907E-1,2.3963174E-2,8.8624194E-2,3E0,4.4064364E-1,1.4623459E-1,-2.4068302E-1,-3.224355E-2,5.652231E-1,1.02892384E-1,-2.3698814E-1,-5.0073147E-1],"split_indices":[7,7,7,7,0,7,21,0,5,23,0,0,22,23,23,25,22,24,0,14,0,25,18,5,22,0,0,0,14,24,0,0,22,0,0,18,22,0,0,17,23,0,17,13,12,0,0,6,0,0,22,0,9,0,25,0,0,0,0,0,0,0,0,9,0,0,0,0,0,0,17,8,17,0,5,9,0,0,12,26,0,0,0,0,0,11,6,0,0,0,0,0,0,0,0,0,0,0,0,0,0],"split_type":[0,0,0,0,0,0,0,0,0,0,0,0,0,0,0,0,0,0,0,0,0,0,0,0,0,0,0,0,0,0,0,0,0,0,0,0,0,0,0,0,0,0,0,0,0,0,0,0,0,0,0,0,0,0,0,0,0,0,0,0,0,0,0,0,0,0,0,0,0,0,0,0,0,0,0,0,0,0,0,0,0,0,0,0,0,0,0,0,0,0,0,0,0,0,0,0,0,0,0,0,0],"sum_hessian":[7.9391626E3,3.451638E3,4.4875244E3,2.7442192E3,1.7433053E3,1.5426836E3,1.9089545E3,7.632115E2,9.800938E2,2.0402962E2,1.3386539E3,5.5961914E2,2.0359233E2,3.2612405E2,2.334951E2,1.8435594E3,9.006597E2,3.1273727E2,1.338677E1,1.5970453E3,3.1190915E2,5.2950916E2,8.0914484E2,4.7932047E2,5.0188667E1,1.5428975E2,7.920536E1,4.680113E0,1.5923652E3,3.1291455E2,4.962303E2,2.498875E2,2.2943297E2,3.172974E1,1.8458925E1,3.3532593E2,6.447679E2,3.7035706E1,2.9829022E2,3.2802895E1,2.799344E2,7.9616035E1,1.4981694E2,6.690462E1,8.2912315E1,1.2343026E1,2.0459867E1,6.42388E1,2.6658144E0,1.4779198E2,5.580035E1,1.1023027E2,9.379934E1,1.7301173E2,1.3990282E2,1.3650189E2,3.4009337E0,9.116003E1,1.8877435E2,4.9943775E1,5.948241E2,2.924094E2,1.949975E1,7.767542E2,1.239055E2,7.66319E1,6.2804184E0,4.509911E1,1.9139694E1,7.038474E2,8.885178E2,1.3926662E2,5.6458075E2,4.8830835E2,7.627242E1,8.507009E2,3.7816883E1,4.2187357E2,4.2882736E2,7.0607864E1,5.664552E0,1.1314084E1,5.9293785E1,4.885642E1,3.7997095E2,1.7281078E3,1.1545157E2,1.09661385E2,5.790185E0,3.43897E1,1.6937181E3,5.633992E2,2.1335504E2,1.30092125E1,2.0034584E2,1.1468516E2,2.458146E1,5.1383358E1,4.4169893E0,1.4829988E1,7.896935E1],"tree_param":{"num_deleted":"0","num_feature":"27","num_nodes":"101","size_leaf_vector":"1"}},{"base_weights":[2.7770616E-4,-2.6543276E0,1.9629694E0,6.984333E-1,3.521447E0,-4.180586E0,-1.3887544E0,-6.5198116E0,-3.4971833E0,4.8305945E0,2.6831186E0,3.9362676E0,7.652094E0,5.528967E0,1.9253622E0,5.9622664E0,-1.0230799E-1,3.1334992E-2,2.2132224E-1,3.8274235E-1,8.876432E-2,1.7390215E-1,-1.692427E0,4.9825504E-1,-8.512478E-2,-3.6787438E0,-1.2297097E-2,-4.7615647E0,-3.0546453E0,5.592575E0,1.1487998E1,-6.741749E0,8.197208E-2,2.9181323E0,2.7199866E-2,1.7393988E0,3.736999E0,1.1571006E-1,-3.1235628E-2,-4.0306723E-1,7.607866E-1,3.444769E-1,-1.0410598E-1,1.05373524E-1,4.244337E-1,8.627728E-1,3.384379E-1,2.9545753E0,-1.3932629E-1,2.1213277E-1,-1.719644E-1,2.8428387E-2,8.513361E-2,-7.142072E-1,2.1834435E0,3.4181397E-2,-9.871187E-2,8.1639805E0,1.2628283E-1,-6.1918674E0,4.3390465E-1,-1.1421417E0,1.5377079E0,4.687985E-1,2.9551366E-1,1.7171898E-1,6.871042E0,4.2811096E-1,1.0992554E-2,-2.8403756E-1,-4.01572E-1,-1.7945702E-1,2.5969481E0,6.1096053E0,1.3104938E-1,3.565106E0,3.348839E-1,5.030627E-2,-2.5681224E-2,-2.826273E-1,-3.707045E0,-2.6874965E-1,-2.0060372E0,-5.164094E0,1.396023E-2,-2.4863012E-1,-1.1738867E-2,-1.5351552E-1,2.1219403E-1,-2.910598E-1,3.2771412E-1,2.6719522E-2,1.86566E-1,5.448412E-1,6.409214E-2,-6.948367E-2,-6.088819E-1,2.5719357E-1,-3.911461E-3,3.8632905E-1,7.3936486E-1],"categories":[],"categories_nodes":[],"categories_segments":[],"categories_sizes":[],"default_left":[0,0,0,0,0,0,0,0,0,0,0,0,0,0,0,0,0,0,0,0,0,0,0,0,0,0,0,0,0,0,0,0,0,0,0,0,0,0,0,0,0,0,0,0,0,0,0,0,0,0,0,0,0,0,0,0,0,0,0,0,0,0,0,0,0,0,0,0,0,0,0,0,0,0,0,0,0,0,0,0,0,0,0,0,0,0,0,0,0,0,0,0,0,0,0,0,0,0,0,0,0],"id":1,"left_children":[1,5,3,19,9,7,21,31,25,11,33,13,57,15,17,29,-1,-1,-1,39,-1,59,23,-1,-1,27,-1,79,87,73,45,69,-1,35,-1,37,65,-1,-1,41,43,47,-1,-1,51,-1,-1,49,53,-1,-1,77,-1,55,63,-1,-1,99,-1,95,61,85,91,71,-1,-1,67,-1,-1,-1,-1,-1,93,75,-1,97,-1,-1,-1,-1,81,-1,83,89,-1,-1,-1,-1,-1,-1,-1,-1,-1,-1,-1,-1,-1,-1,-1,-1,-1],"loss_changes":[4.1596133E4,6.5551133E3,9.045752E3,8.905282E2,2.2564883E3,2.459293E3,8.803872E2,6.324453E2,7.0169434E2,2.0253066E3,6.2683105E2,1.9519385E3,5.0180078E2,1.1224668E3,8.976717E2,6.573301E2,0E0,0E0,0E0,5.8645917E2,0E0,4.9962955E2,8.283423E2,0E0,0E0,7.619414E2,0E0,4.3767285E2,4.1510303E2,4.550088E2,5.6571826E2,4.651787E2,0E0,1.0894912E3,0E0,6.8432495E2,4.8477832E2,0E0,0E0,8.2531757E2,6.2311017E2,5.6460297E2,0E0,0E0,5.580612E2,0E0,0E0,6.2146234E2,5.0367545E2,0E0,0E0,4.548482E2,0E0,5.551629E2,4.9373953E2,0E0,0E0,3.3914844E2,0E0,3.5258432E2,5.0454208E2,4.2397525E2,3.8424203E2,4.5515842E2,0E0,0E0,5.7010205E2,0E0,0E0,0E0,0E0,0E0,3.753202E2,4.7284277E2,0E0,3.4888635E2,0E0,0E0,0E0,0E0,6.089939E2,0E0,7.4453595E2,3.981538E2,0E0,0E0,0E0,0E0,0E0,0E0,0E0,0E0,0E0,0E0,0E0,0E0,0E0,0E0,0E0,0E0,0E0],"parents":[2147483647,0,0,2,2,1,1,5,5,4,4,9,9,11,11,13,13,14,14,3,3,6,6,22,22,8,8,25,25,15,15,7,7,10,10,33,33,35,35,19,19,39,39,40,40,30,30,41,41,47,47,44,44,48,48,53,53,12,12,21,21,60,60,54,54,36,36,66,66,31,31,63,63,29,29,73,73,51,51,27,27,80,80,82,82,61,61,28,28,83,83,62,62,72,72,59,59,75,75,57,57],"right_children":[2,6,4,20,10,8,22,32,26,12,34,14,58,16,18,30,-1,-1,-1,40,-1,60,24,-1,-1,28,-1,80,88,74,46,70,-1,36,-1,38,66,-1,-1,42,44,48,-1,-1,52,-1,-1,50,54,-1,-1,78,-1,56,64,-1,-1,100,-1,96,62,86,92,72,-1,-1,68,-1,-1,-1,-1,-1,94,76,-1,98,-1,-1,-1,-1,82,-1,84,90,-1,-1,-1,-1,-1,-1,-1,-1,-1,-1,-1,-1,-1,-1,-1,-1,-1],"split_conditions":[-9.793584E-1,-4.3971524E0,3.2904286E0,2.0931304E0,8E0,-9.709903E0,-7.818315E-1,1.4E1,9.5910263E-1,7E0,9.387102E-1,3E0,8.049617E-1,3.4470737E-1,4.5475513E-1,1.6738465E0,-1.0230799E-1,3.1334992E-2,2.2132224E-1,1.4E1,8.876432E-2,2E0,1.97918E0,4.9825504E-1,-8.512478E-2,9E0,-1.2297097E-2,-5.4181194E-1,2.3E1,6E0,8.445092E0,1.6236614E-1,8.197208E-2,-4.8505986E-1,2.7199866E-2,-2.5881904E-1,1.0719032E1,1.1571006E-1,-3.1235628E-2,2.113412E0,1.6E1,3E0,-1.0410598E-1,1.05373524E-1,1.8E1,8.627728E-1,3.384379E-1,5.4391897E-1,9.659258E-1,2.1213277E-1,-1.719644E-1,-6.221855E-1,8.513361E-2,6E0,7E0,3.4181397E-2,-9.871187E-2,2.200226E0,1.2628283E-1,1E0,-2.5881904E-1,1.1E1,-2.5881904E-1,1.3286005E0,2.9551366E-1,1.7171898E-1,4E0,4.2811096E-1,1.0992554E-2,-2.8403756E-1,-4.01572E-1,-1.7945702E-1,-1.5110548E1,-3.235957E0,1.3104938E-1,6.2060946E-1,3.348839E-1,5.030627E-2,-2.5681224E-2,-2.826273E-1,1.7082974E-1,-2.6874965E-1,2E0,7.5985103E0,1.396023E-2,-2.4863012E-1,-1.1738867E-2,-1.5351552E-1,2.1219403E-1,-2.910598E-1,3.2771412E-1,2.6719522E-2,1.86566E-1,5.448412E-1,6.409214E-2,-6.948367E-2,-6.088819E-1,2.5719357E-1,-3.911461E-3,3.8632905E-1,7.3936486E-1],"split_indices":[7,7,7,7,0,7,19,0,25,0,22,0,23,23,23,26,0,0,0,0,0,0,14,0,0,0,0,5,21,1,14,23,0,23,0,17,7,0,0,6,0,0,0,0,21,0,0,23,17,0,0,26,0,2,0,0,0,26,0,0,18,0,17,9,0,0,2,0,0,0,0,0,16,9,0,22,0,0,0,0,22,0,0,13,0,0,0,0,0,0,0,0,0,0,0,0,0,0,0,0,0],"split_type":[0,0,0,0,0,0,0,0,0,0,0,0,0,0,0,0,0,0,0,0,0,0,0,0,0,0,0,0,0,0,0,0,0,0,0,0,0,0,0,0,0,0,0,0,0,0,0,0,0,0,0,0,0,0,0,0,0,0,0,0,0,0,0,0,0,0,0,0,0,0,0,0,0,0,0,0,0,0,0,0,0,0,0,0,0,0,0,0,0,0,0,0,0,0,0,0,0,0,0,0,0],"sum_hessian":[7.983638E3,3.3936348E3,4.5900034E3,2.533965E3,2.0560383E3,1.5383782E3,1.8552566E3,3.4781982E2,1.1905583E3,8.0263257E2,1.2534058E3,6.094551E2,1.9317749E2,3.4009152E2,2.693636E2,3.2178665E2,1.830487E1,1.8004253E2,8.932106E1,1.9741383E3,5.598269E2,3.0187076E2,1.5533859E3,5.8648176E0,1.547521E3,1.1274971E3,6.3061306E1,4.1224445E2,7.1525256E2,3.016085E2,2.0178175E1,3.3864627E2,9.173548E0,1.1287466E3,1.2465918E2,4.627022E2,6.660443E2,3.6670663E2,9.5995575E1,6.412414E2,1.3328969E3,4.47112E2,1.9412938E2,2.5971335E2,1.0731835E3,8.636438E0,1.1541737E1,6.991628E1,3.771957E2,5.7653126E1,1.2263155E1,8.24528E2,2.4865552E2,3.0236206E2,7.4833664E1,1.4497397E2,1.5738808E2,1.754768E2,1.7700674E1,1.1845474E1,2.900253E2,1.1945836E2,1.7056694E2,5.1766727E1,2.3066935E1,6.200938E2,4.5950535E1,3.5875313E1,1.007522E1,2.0529942E2,1.3334685E2,1.7599518E1,3.416721E1,2.5620938E2,4.539911E1,5.683334E1,1.9937604E2,2.937769E2,5.307511E2,2.1089214E2,2.0135231E2,9.8445244E1,1.0290707E2,4.326578E1,5.9641285E1,2.2299524E1,9.715883E1,7.077227E2,7.5298777E0,4.0606102E1,2.6596777E0,1.186843E2,5.1882637E1,4.4877086E0,2.96795E1,6.709249E0,5.1362257E0,3.8872177E1,1.796116E1,1.68681E2,6.7958174E0],"tree_param":{"num_deleted":"0","num_feature":"27","num_nodes":"101","size_leaf_vector":"1"}},{"base_weights":[-2.1670336E-2,-2.5561051E0,1.929999E0,8.0292994E-1,3.53499E0,-4.0031424E0,-1.3653945E0,3.045099E0,6.341964E0,-6.1911917E0,-3.3751962E0,4.101241E0,2.4676895E0,3.392075E0,3.273734E-1,4.6264296E0,1.8166323E0,4.3453512E-1,1.6503136E0,-1.651231E0,1.2253993E-1,3.9724365E-1,4.7621136E0,4.7384346E-1,-8.297025E-2,5.359735E-1,4.6874776E0,2.4554893E-1,-1.3378136E-1,-6.9551606E0,-1.8528207E-1,8.919043E-2,-1.480602E-1,-3.529192E0,-3.7236246E-1,-6.980151E-2,6.121662E-1,-4.0543904E0,-1.2525792E-1,2.7494067E-1,-4.132976E0,5.20246E-1,7.706549E-2,5.6583774E-1,-1.6566073E0,-2.8160465E-1,-4.173969E-1,3.647678E0,3.8195997E-1,1.0164995E-1,3.9327276E-1,1.8825171E0,1.5543726E-1,2.495506E0,-2.1924598E-2,-5.2890325E0,-3.6957726E0,-2.6594205E0,-5.0627604E0,-4.195813E0,-1.1153673E0,-5.1023974E0,4.330356E-2,-6.2147245E0,-1.4181712E-1,-1.393001E-1,-3.003695E-1,-9.327907E-3,1.9749105E-1,1.9939615E-1,-2.25589E-1,-5.5476703E-2,-5.8062963E0,-2.4654123E-1,-5.418954E-1,1.9992334E-1,7.250695E-1,2.3067276E-1,-7.463872E-2,1.2868525E-1,-1.7878364E-1,5.9889483E-1,-3.5099737E-2,2.954816E0,4.4995815E-1,1.9667578E-1,-1.7314419E-1,-3.1890556E-1,8.141755E-2,-9.941428E-2,3.4477025E-1,3.1445518E-1,1.2408206E-1,1.1531287E0,-5.48496E-3,-1.4608185E-1,1.2360839E-1,8.784999E-2,-1.1212351E0,-3.7886822E-1,-2.5536776E-2],"categories":[],"categories_nodes":[],"categories_segments":[],"categories_sizes":[],"default_left":[0,0,0,0,0,0,0,0,0,0,0,0,0,0,0,0,0,0,0,0,0,0,0,0,0,0,0,0,0,0,0,0,0,0,0,0,0,0,0,0,0,0,0,0,0,0,0,0,0,0,0,0,0,0,0,0,0,0,0,0,0,0,0,0,0,0,0,0,0,0,0,0,0,0,0,0,0,0,0,0,0,0,0,0,0,0,0,0,0,0,0,0,0,0,0,0,0,0,0,0,0],"id":2,"left_children":[1,5,3,17,7,9,19,11,21,29,33,13,51,15,-1,27,25,43,41,23,67,-1,47,-1,-1,31,75,-1,-1,45,-1,-1,-1,37,35,-1,-1,39,-1,-1,55,-1,-1,49,89,-1,-1,69,-1,-1,81,53,-1,79,-1,65,57,59,63,61,77,71,-1,87,-1,-1,-1,-1,-1,-1,-1,-1,73,-1,-1,-1,-1,-1,-1,-1,-1,83,-1,85,91,-1,-1,-1,-1,-1,-1,93,-1,95,-1,97,-1,-1,99,-1,-1],"loss_changes":[3.904409E4,5.9168516E3,8.066828E3,8.1781506E2,2.5297422E3,2.1298809E3,8.012234E2,9.551709E2,7.625449E2,6.36334E2,5.5698145E2,1.0131133E3,4.1762598E2,8.445332E2,0E0,6.9002686E2,7.014298E2,5.0135428E2,5.511294E2,7.546665E2,3.7126776E2,0E0,4.877505E2,0E0,0E0,6.0288354E2,3.6123035E2,0E0,0E0,4.956631E2,0E0,0E0,0E0,5.8530273E2,7.955265E2,0E0,0E0,5.651553E2,0E0,0E0,3.7300488E2,0E0,0E0,4.473318E2,3.4926147E2,0E0,0E0,3.6740393E2,0E0,0E0,3.5177722E2,7.9022327E2,0E0,3.5241968E2,0E0,4.1680078E2,7.586201E2,7.22551E2,5.7676514E2,7.0306665E2,3.609325E2,3.620293E2,0E0,3.4930127E2,0E0,0E0,0E0,0E0,0E0,0E0,0E0,0E0,4.476892E2,0E0,0E0,0E0,0E0,0E0,0E0,0E0,0E0,4.5639667E2,0E0,5.315905E2,3.4522253E2,0E0,0E0,0E0,0E0,0E0,0E0,4.1076746E2,0E0,6.889557E2,0E0,3.757054E2,0E0,0E0,5.244642E2,0E0,0E0],"parents":[2147483647,0,0,2,2,1,1,4,4,5,5,7,7,11,11,13,13,3,3,6,6,8,8,19,19,16,16,15,15,9,9,25,25,10,10,34,34,33,33,37,37,18,18,17,17,29,29,22,22,43,43,12,12,51,51,40,40,56,56,57,57,59,59,58,58,55,55,20,20,47,47,61,61,72,72,26,26,60,60,53,53,50,50,81,81,83,83,63,63,44,44,84,84,91,91,93,93,95,95,98,98],"right_children":[2,6,4,18,8,10,20,12,22,30,34,14,52,16,-1,28,26,44,42,24,68,-1,48,-1,-1,32,76,-1,-1,46,-1,-1,-1,38,36,-1,-1,40,-1,-1,56,-1,-1,50,90,-1,-1,70,-1,-1,82,54,-1,80,-1,66,58,60,64,62,78,72,-1,88,-1,-1,-1,-1,-1,-1,-1,-1,74,-1,-1,-1,-1,-1,-1,-1,-1,84,-1,86,92,-1,-1,-1,-1,-1,-1,94,-1,96,-1,98,-1,-1,100,-1,-1],"split_conditions":[-8.811214E-1,-4.3971524E0,3.6789217E0,2.0439596E0,1.0719032E1,-9.709903E0,1.4E1,8E0,-2.7848048E0,9E0,9.5910263E-1,7E0,-1.6236614E-1,7.0710677E-1,3.273734E-1,3.4470737E-1,4.5475513E-1,9.182768E-1,-3.176223E0,1.97918E0,2.3E1,3.9724365E-1,8.660254E-1,4.7384346E-1,-8.297025E-2,9.990073E-1,7.719376E0,2.4554893E-1,-1.3378136E-1,1.4540367E-1,-1.8528207E-1,8.919043E-2,-1.480602E-1,1.4E1,1.6586857E0,-6.980151E-2,6.121662E-1,-1.241944E0,-1.2525792E-1,2.7494067E-1,1.2246469E-16,5.20246E-1,7.706549E-2,-7.818315E-1,1.0568535E1,-2.8160465E-1,-4.173969E-1,2.225517E0,3.8195997E-1,1.0164995E-1,5.688106E0,-2.5881904E-1,1.5543726E-1,-1.7928076E-1,-2.1924598E-2,1.02821E-1,3.1859238E1,-5.4181194E-1,9E0,1E1,-5.671143E0,-1.4326569E1,4.330356E-2,1E0,-1.4181712E-1,-1.393001E-1,-3.003695E-1,-9.327907E-3,1.9749105E-1,1.9939615E-1,-2.25589E-1,-5.5476703E-2,9.805754E-1,-2.4654123E-1,-5.418954E-1,1.9992334E-1,7.250695E-1,2.3067276E-1,-7.463872E-2,1.2868525E-1,-1.7878364E-1,3E0,-3.5099737E-2,6.1385614E-1,2E1,1.9667578E-1,-1.7314419E-1,-3.1890556E-1,8.141755E-2,-9.941428E-2,3.4477025E-1,-5E-1,1.2408206E-1,1.4E1,-5.48496E-3,5E0,1.2360839E-1,8.784999E-2,1E1,-3.7886822E-1,-2.5536776E-2],"split_indices":[7,7,7,7,7,7,21,0,6,0,25,0,23,17,0,23,23,25,26,14,0,0,18,0,0,12,13,0,0,23,0,0,0,0,26,0,0,25,0,0,17,0,0,19,6,0,0,26,0,0,6,17,0,23,0,22,24,5,0,0,6,16,0,17,0,0,0,0,0,0,0,0,22,0,0,0,0,0,0,0,0,0,0,23,21,0,0,0,0,0,0,18,0,0,0,2,0,0,0,0,0],"split_type":[0,0,0,0,0,0,0,0,0,0,0,0,0,0,0,0,0,0,0,0,0,0,0,0,0,0,0,0,0,0,0,0,0,0,0,0,0,0,0,0,0,0,0,0,0,0,0,0,0,0,0,0,0,0,0,0,0,0,0,0,0,0,0,0,0,0,0,0,0,0,0,0,0,0,0,0,0,0,0,0,0,0,0,0,0,0,0,0,0,0,0,0,0,0,0,0,0,0,0,0,0],"sum_hessian":[7.8934688E3,3.4340356E3,4.459433E3,2.6197634E3,1.8396698E3,1.550164E3,1.8838717E3,1.5663081E3,2.7336157E2,3.4567453E2,1.2044895E3,5.536402E2,1.01266797E3,4.342865E2,1.1935371E2,2.4350241E2,1.9078409E2,1.8259457E3,7.9381775E2,1.5802931E3,3.035787E2,1.2908698E2,1.4427461E2,5.8648176E0,1.5744282E3,1.3193117E2,5.885292E1,2.3138783E2,1.2114569E1,2.6246072E2,8.3213806E1,9.693707E1,3.49941E1,1.1457322E3,5.8757275E1,5.4315395E1,4.4418793E0,7.440104E2,4.0172177E2,6E0,7.380104E2,6.794137E0,7.870236E2,1.7180687E3,1.07877E2,1.4809627E2,1.14364456E2,1.0551363E2,3.8760983E1,1.763294E2,1.5417393E3,5.5327576E2,4.593922E2,4.3803503E2,1.1524071E2,2.025151E2,5.354953E2,3.0458313E2,2.3091216E2,1.5266997E2,1.5191318E2,1.2954889E2,2.3121082E1,1.5079681E2,8.011534E1,5.1837116E1,1.50678E2,2.8107394E2,2.250476E1,1.003808E2,5.1328354E0,1.9509981E1,1.1003891E2,9.5902695E1,1.4136215E1,5.5519817E1,3.333103E0,9.94625E0,1.4196692E2,4.2889548E2,9.139552E0,1.3007135E3,2.410258E2,7.7338875E1,1.2233746E3,6.648504E1,1.0853836E1,1.4536923E2,5.427585E0,1.0344561E2,4.4313917E0,1.1486375E3,7.473718E1,3.8715613E2,7.6148126E2,1.9869046E2,1.8846567E2,6.648496E1,1.322055E2,1.1E1,1.21205505E2],"tree_param":{"num_deleted":"0","num_feature":"27","num_nodes":"101","size_leaf_vector":"1"}},{"base_weights":[-2.5598826E-2,-2.4686859E0,1.7916083E0,6.530133E-1,3.2180946E0,-3.7668774E0,-1.367833E0,4.5248227E0,2.334799E0,3.5531511E0,7.3003345E0,5.10032E0,1.6291996E0,-6.5442104E0,-3.3861504E0,3.2148787E-1,2.198452E-1,-1.690241E0,4.113352E-3,5.493953E0,-6.091235E-2,3.5661498E-1,7.715326E-2,-5.2720118E0,-3.1269732E0,-6.936527E-2,-3.459783E0,-1.0674776E0,2.4883814E0,1.563225E0,3.0477235E0,3.5071769E0,4.55282E-1,2.191604E0,-4.8249725E-2,4.204106E0,6.8728337E0,7.834385E0,9.6284E-2,2.3450089E-1,-2.061868E0,5.0103164E-1,9.831286E-2,4.0335366E-1,2.3165822E-1,-5.6506696E0,1.10351406E-1,-3.0608134E0,-4.5783076E0,-2.1033072E-1,-2.398281E0,2.5516386E0,-1.3777354E-1,-1.0419303E-1,-2.605019E-1,2.1033523E0,1.9618076E-1,-8.639668E0,-2.6763892E-1,-4.8806435E-1,-1.7485692E-1,4.1529292E-1,-1.716772E0,6.646977E-1,3.5753337E-1,-9.5948535E-1,1.9276015E0,-2.1055216E-1,1.5247901E-1,6.1112277E-2,-1.308673E-1,5.1894236E-1,6.335268E-2,4.6816942E-1,-6.7937374E-2,9.6810795E-2,2.8209627E-1,9.736268E-3,1.7714638E-1,-4.878274E0,-4.2567924E-1,-1.7465289E-1,-3.6451155E-1,4.5347688E-1,4.0984247E-3,2.2678734E-1,6.058142E-2,2.2501217E-1,-2.856234E-1,-1.8598239E-1,6.678527E-2,-2.2575274E0,-1.2905517E0,-1.6972271E0,-2.3896798E-1,-1.3917493E0,3.390332E-1,2.8268836E-2,-1.02238454E-1,-8.749372E-2,-1.4124386E-2],"categories":[],"categories_nodes":[],"categories_segments":[],"categories_sizes":[],"default_left":[0,0,0,0,0,0,0,0,0,0,0,0,0,0,0,0,0,0,0,0,0,0,0,0,0,0,0,0,0,0,0,0,0,0,0,0,0,0,0,0,0,0,0,0,0,0,0,0,0,0,0,0,0,0,0,0,0,0,0,0,0,0,0,0,0,0,0,0,0,0,0,0,0,0,0,0,0,0,0,0,0,0,0,0,0,0,0,0,0,0,0,0,0,0,0,0,0,0,0,0,0],"id":3,"left_children":[1,5,3,21,7,13,17,9,27,11,43,19,15,57,23,65,-1,61,-1,35,-1,73,-1,45,25,-1,47,89,29,33,31,55,83,41,-1,39,37,63,-1,-1,87,-1,-1,-1,-1,79,-1,49,53,-1,51,71,-1,-1,-1,85,-1,59,-1,-1,-1,-1,91,-1,-1,69,67,-1,-1,-1,-1,-1,-1,75,-1,-1,77,-1,-1,81,-1,-1,-1,-1,-1,-1,-1,-1,-1,-1,-1,93,95,97,-1,99,-1,-1,-1,-1,-1],"loss_changes":[3.501774E4,4.8081406E3,7.346506E3,6.871665E2,2.3174062E3,1.6324512E3,8.521555E2,2.1838848E3,6.259795E2,1.7854116E3,5.0340527E2,8.301504E2,9.991248E2,4.2187158E2,6.6360645E2,3.7736194E2,0E0,4.018169E2,0E0,5.5672656E2,0E0,3.7012613E2,0E0,4.6739404E2,6.798115E2,0E0,4.459453E2,3.4313116E2,5.931494E2,6.9150146E2,8.5085986E2,4.2322607E2,3.517064E2,5.150907E2,0E0,5.898445E2,7.139429E2,3.8950342E2,0E0,0E0,3.4464307E2,0E0,0E0,0E0,0E0,3.664077E2,0E0,6.0122314E2,4.7569678E2,0E0,9.8076904E2,3.738088E2,0E0,0E0,0E0,3.4725043E2,0E0,4.246704E2,0E0,0E0,0E0,0E0,3.424619E2,0E0,0E0,3.85383E2,6.0004333E2,0E0,0E0,0E0,0E0,0E0,0E0,5.0185684E2,0E0,0E0,4.425797E2,0E0,0E0,4.1896704E2,0E0,0E0,0E0,0E0,0E0,0E0,0E0,0E0,0E0,0E0,0E0,9.613457E2,6.90379E2,4.7785437E2,0E0,3.5684778E2,0E0,0E0,0E0,0E0,0E0],"parents":[2147483647,0,0,2,2,1,1,4,4,7,7,9,9,5,5,12,12,6,6,11,11,3,3,14,14,24,24,8,8,28,28,30,30,29,29,19,19,36,36,35,35,33,33,10,10,23,23,26,26,47,47,50,50,48,48,31,31,13,13,57,57,17,17,37,37,15,15,66,66,65,65,51,51,21,21,73,73,76,76,45,45,79,79,32,32,55,55,40,40,27,27,62,62,91,91,92,92,93,93,95,95],"right_children":[2,6,4,22,8,14,18,10,28,12,44,20,16,58,24,66,-1,62,-1,36,-1,74,-1,46,26,-1,48,90,30,34,32,56,84,42,-1,40,38,64,-1,-1,88,-1,-1,-1,-1,80,-1,50,54,-1,52,72,-1,-1,-1,86,-1,60,-1,-1,-1,-1,92,-1,-1,70,68,-1,-1,-1,-1,-1,-1,76,-1,-1,78,-1,-1,82,-1,-1,-1,-1,-1,-1,-1,-1,-1,-1,-1,94,96,98,-1,100,-1,-1,-1,-1,-1],"split_conditions":[-9.9757123E-1,-4.3971524E0,3.2904286E0,2.0439596E0,8E0,-1.1355272E1,1.4E1,7E0,1E1,3E0,2.8260842E-1,3.4470737E-1,4.5475513E-1,3.0806871E1,2E0,6E0,2.198452E-1,1.97918E0,4.113352E-3,2E0,-6.091235E-2,9.182768E-1,7.715326E-2,5.5053563E0,-7.818315E-1,-6.936527E-2,8.660254E-1,7.3388535E-1,-4.8505986E-1,-2.5881904E-1,9.326545E-1,-7.0710677E-1,3.053725E1,2.9408371E0,-4.8249725E-2,1E0,6E0,3.0671206E1,9.6284E-2,2.3450089E-1,6.7130065E0,5.0103164E-1,9.831286E-2,4.0335366E-1,2.3165822E-1,1E0,1.10351406E-1,-8.660254E-1,-1.9575562E0,-2.1033072E-1,-7.0710677E-1,-1.3510821E0,-1.3777354E-1,-1.0419303E-1,-2.605019E-1,-9.659258E-1,1.9618076E-1,4.3391776E0,-2.6763892E-1,-4.8806435E-1,-1.7485692E-1,4.1529292E-1,-2.5881904E-1,6.646977E-1,3.5753337E-1,2.8623852E-1,1E0,-2.1055216E-1,1.5247901E-1,6.1112277E-2,-1.308673E-1,5.1894236E-1,6.335268E-2,-7.818315E-1,-6.7937374E-2,9.6810795E-2,1E0,9.736268E-3,1.7714638E-1,-6.647234E-1,-4.2567924E-1,-1.7465289E-1,-3.6451155E-1,4.5347688E-1,4.0984247E-3,2.2678734E-1,6.058142E-2,2.2501217E-1,-2.856234E-1,-1.8598239E-1,6.678527E-2,7.0710677E-1,6E0,1.2E1,-2.3896798E-1,5E-1,3.390332E-1,2.8268836E-2,-1.02238454E-1,-8.749372E-2,-1.4124386E-2],"split_indices":[7,7,7,7,0,7,21,0,0,0,8,23,23,24,0,0,0,14,0,0,0,25,0,10,19,0,17,22,23,17,22,17,24,14,0,0,1,24,0,0,14,0,0,0,0,21,0,18,9,0,18,8,0,0,0,17,0,6,0,0,0,0,18,0,0,12,1,0,0,0,0,0,0,19,0,0,18,0,0,9,0,0,0,0,0,0,0,0,0,0,0,17,21,0,0,17,0,0,0,0,0],"split_type":[0,0,0,0,0,0,0,0,0,0,0,0,0,0,0,0,0,0,0,0,0,0,0,0,0,0,0,0,0,0,0,0,0,0,0,0,0,0,0,0,0,0,0,0,0,0,0,0,0,0,0,0,0,0,0,0,0,0,0,0,0,0,0,0,0,0,0,0,0,0,0,0,0,0,0,0,0,0,0,0,0,0,0,0,0,0,0,0,0,0,0,0,0,0,0,0,0,0,0,0,0],"sum_hessian":[7.8875967E3,3.364415E3,4.5231816E3,2.5154202E3,2.0077616E3,1.5438334E3,1.8205815E3,8.097837E2,1.1979779E3,5.9980145E2,2.0998225E2,3.32454E2,2.6734744E2,1.8611983E2,1.3577135E3,1.8341731E2,8.393014E1,1.4897443E3,3.3083737E2,3.1302975E2,1.9424261E1,1.9033325E3,6.120876E2,1.6404686E2,1.1936666E3,1.943519E2,9.9931476E2,5.174205E1,1.1462358E3,4.3188928E2,7.1434656E2,6.068037E2,1.0754285E2,3.464492E2,8.5440094E1,1.6173709E2,1.5129266E2,1.26506386E2,2.4786274E1,1.4799101E2,1.3746083E1,7.7997546E0,3.3864944E2,1.5413196E2,5.5850292E1,1.5618689E2,7.8599715E0,7.3658234E2,2.6273248E2,2.5758762E2,4.789947E2,3.694124E1,4.4205344E2,6.0818974E1,2.019135E2,1.5862088E2,4.4818283E2,6.3367737E1,1.2275208E2,5.0266315E1,1.3101422E1,3.8774407E0,1.4858668E3,1.0839489E1,1.1566689E2,1.02036674E2,8.138063E1,1.3009377E1,6.8371254E1,4.4569366E1,5.7467308E1,5E0,3.1941238E1,1.788857E3,1.14475464E2,1.965157E2,1.5923413E3,1.5534838E3,3.8857666E1,1.2452199E2,3.16649E1,8.2308876E1,4.2213116E1,4.357318E0,1.0318553E2,4.0535675E1,1.18085205E2,4.9692945E0,8.776789E0,2.4377457E1,2.7364595E1,6.549346E2,8.309322E2,5.395413E2,1.1539328E2,8.208151E2,1.0117049E1,7.888469E1,4.6065662E2,6.048571E2,2.15958E2],"tree_param":{"num_deleted":"0","num_feature":"27","num_nodes":"101","size_leaf_vector":"1"}},{"base_weights":[-3.5428163E-2,-2.239926E0,1.8630214E0,3.2000825E0,1.3219595E0,2.3092842E0,6.711181E0,-3.0522954E0,-1.2182702E0,-4.186868E0,-1.63926E0,5.84623E-1,3.6002696E0,1.7925486E-2,2.0001078E0,-2.3517582E0,-5.163359E-1,-3.1632525E-1,-3.7526536E0,-2.029362E0,2.1552148E0,-1.2528926E0,3.7104715E-2,-4.0304027E0,-4.8773217E-1,4.6625247E0,2.1790023E0,5.010011E0,-3.1747782E0,1.8290725E-1,-2.4690893E-2,-2.2542734E0,-3.5879087E-1,-3.9363346E-1,-2.1814205E-1,-4.4005802E-1,-1.3975945E-1,-1.6166268E-1,5.4590714E-1,4.8020225E-2,2.1861048E-1,7.1761136E0,5.4093614E-2,-1.6226643E0,6.5679446E-2,-7.240133E-2,1.5076219E-1,2.1831438E-1,8.946505E-2,5.169645E0,-8.569194E-2,9.23394E-3,-1.7722344E-1,3.1516626E-1,-4.219738E-1,2.3315747E0,2.5779398E-2,1.5728717E0,2.979385E0,2.1049662E0,-2.8619952E-2,1.8939361E-1,1.0274119E-1,6.067405E-1,7.828946E-3,2.6766028E0,3.745203E-2,2.4064487E-1,1.0244488E-1,4.708507E0,9.575452E0,1.0676413E-1,6.186369E-1,5.887161E-2,-9.265339E-2,3.9936718E-1,-5.8432586E-2,-5.529587E0,-3.7301054E0,-4.677499E0,-2.9713275E0,-4.679252E0,-8.718231E-2,-8.932704E-2,-2.5554523E-1,-8.136607E-2,-2.7456757E-1,3.3943456E-1,6.8619955E-1,3.0923134E-1,3.914763E0,2.0445724E-1,-1.6601686E-1,8.008571E-2,-4.2647722E-1,-3.2372236E-1,-1.5995975E-1,-1.013633E-1,4.3014854E-1,-1.19356595E-1,2.1683764E-1],"categories":[],"categories_nodes":[],"categories_segments":[],"categories_sizes":[],"default_left":[0,0,0,0,0,0,0,0,0,0,0,0,0,0,0,0,0,0,0,0,0,0,0,0,0,0,0,0,0,0,0,0,0,0,0,0,0,0,0,0,0,0,0,0,0,0,0,0,0,0,0,0,0,0,0,0,0,0,0,0,0,0,0,0,0,0,0,0,0,0,0,0,0,0,0,0,0,0,0,0,0,0,0,0,0,0,0,0,0,0,0,0,0,0,0,0,0,0,0,0,0],"id":4,"left_children":[1,7,3,5,13,11,41,9,15,17,31,29,25,-1,19,99,21,-1,23,33,55,43,-1,77,49,27,39,69,93,-1,37,35,51,-1,75,45,-1,-1,47,-1,-1,87,-1,73,-1,-1,-1,-1,53,97,-1,-1,-1,63,-1,57,-1,59,61,65,-1,-1,-1,-1,-1,67,-1,-1,-1,89,71,-1,-1,-1,-1,-1,-1,95,79,83,81,85,-1,-1,-1,-1,-1,-1,-1,-1,91,-1,-1,-1,-1,-1,-1,-1,-1,-1,-1],"loss_changes":[3.2815742E4,3.011164E3,3.047789E3,3.7960469E3,1.9446606E3,2.1554507E3,6.4029004E2,3.2401172E3,1.2786094E3,1.1045469E3,7.0880786E2,7.9505634E2,8.358701E2,0E0,1.0966812E3,3.5109302E2,9.3101825E2,0E0,8.532627E2,7.0735205E2,4.85437E2,6.030004E2,0E0,3.9038867E2,5.263701E2,8.628794E2,6.481173E2,4.1760254E2,3.5773138E2,0E0,6.4884534E2,6.598638E2,5.2074365E2,0E0,4.0750845E2,5.5023395E2,0E0,0E0,5.277291E2,0E0,0E0,3.845752E2,0E0,4.171283E2,0E0,0E0,0E0,0E0,5.200666E2,3.5137592E2,0E0,0E0,0E0,4.839795E2,0E0,7.493301E2,0E0,8.059342E2,6.430713E2,4.3163232E2,0E0,0E0,0E0,0E0,0E0,5.1690015E2,0E0,0E0,0E0,3.6206982E2,4.2409058E2,0E0,0E0,0E0,0E0,0E0,0E0,3.531499E2,5.1933594E2,4.9350928E2,8.1666284E2,4.6021484E2,0E0,0E0,0E0,0E0,0E0,0E0,0E0,0E0,3.5888696E2,0E0,0E0,0E0,0E0,0E0,0E0,0E0,0E0,0E0,0E0],"parents":[2147483647,0,0,2,2,3,3,1,1,7,7,5,5,4,4,8,8,9,9,14,14,16,16,18,18,12,12,25,25,11,11,10,10,19,19,31,31,30,30,26,26,6,6,21,21,35,35,38,38,24,24,32,32,48,48,20,20,55,55,57,57,58,58,53,53,59,59,65,65,27,27,70,70,43,43,34,34,23,23,78,78,80,80,79,79,81,81,41,41,69,69,90,90,28,28,77,77,49,49,15,15],"right_children":[2,8,4,6,14,12,42,10,16,18,32,30,26,-1,20,100,22,-1,24,34,56,44,-1,78,50,28,40,70,94,-1,38,36,52,-1,76,46,-1,-1,48,-1,-1,88,-1,74,-1,-1,-1,-1,54,98,-1,-1,-1,64,-1,58,-1,60,62,66,-1,-1,-1,-1,-1,68,-1,-1,-1,90,72,-1,-1,-1,-1,-1,-1,96,80,84,82,86,-1,-1,-1,-1,-1,-1,-1,-1,92,-1,-1,-1,-1,-1,-1,-1,-1,-1,-1],"split_conditions":[-5.4033184E-1,1.4E1,8E0,7E0,1.7928027E0,3.99136E0,8.049617E-1,-4.490881E0,4E0,-1.11159935E1,6.6015214E-1,1E0,3E0,1.7925486E-2,1E1,2.3E1,-7.0710677E-1,-3.1632525E-1,9.5910263E-1,-3.6938563E-1,9.326545E-1,2E1,3.7104715E-2,-8.9061654E-1,4E0,4.6997675E-1,4.5475513E-1,1.6738465E0,1.9767449E0,1.8290725E-1,2E0,-6.474913E-1,1.3E1,-3.9363346E-1,-2.1821582E0,6.3434668E0,-1.3975945E-1,-1.6166268E-1,-3.0073829E0,4.8020225E-2,2.1861048E-1,2.200226E0,5.4093614E-2,-7.710922E0,6.5679446E-2,-7.240133E-2,1.5076219E-1,2.1831438E-1,8.530879E0,-7.604754E0,-8.569194E-2,9.23394E-3,-1.7722344E-1,-5.258869E-1,-4.219738E-1,-4.8505986E-1,2.5779398E-2,-2.5881904E-1,1.6E1,1.9E1,-2.8619952E-2,1.8939361E-1,1.0274119E-1,6.067405E-1,7.828946E-3,-8.493593E-1,3.745203E-2,2.4064487E-1,1.0244488E-1,-8.702852E-1,1E0,1.0676413E-1,6.186369E-1,5.887161E-2,-9.265339E-2,3.9936718E-1,-5.8432586E-2,9E0,-5.4181194E-1,-1.4326569E1,1.2246469E-16,1.02821E-1,-8.718231E-2,-8.932704E-2,-2.5554523E-1,-8.136607E-2,-2.7456757E-1,3.3943456E-1,6.8619955E-1,3.0923134E-1,1.0742207E1,2.0445724E-1,-1.6601686E-1,8.008571E-2,-4.2647722E-1,-3.2372236E-1,-1.5995975E-1,-1.013633E-1,4.3014854E-1,-1.19356595E-1,2.1683764E-1],"split_indices":[7,0,0,0,7,7,23,7,2,7,22,0,0,0,0,21,17,0,25,26,22,0,0,22,2,23,23,26,11,0,0,12,0,0,10,14,0,0,10,0,0,26,0,8,0,0,0,0,14,7,0,0,0,7,0,23,0,17,0,0,0,0,0,0,0,25,0,0,0,23,0,0,0,0,0,0,0,0,5,16,17,22,0,0,0,0,0,0,0,0,6,0,0,0,0,0,0,0,0,0,0],"split_type":[0,0,0,0,0,0,0,0,0,0,0,0,0,0,0,0,0,0,0,0,0,0,0,0,0,0,0,0,0,0,0,0,0,0,0,0,0,0,0,0,0,0,0,0,0,0,0,0,0,0,0,0,0,0,0,0,0,0,0,0,0,0,0,0,0,0,0,0,0,0,0,0,0,0,0,0,0,0,0,0,0,0,0,0,0,0,0,0,0,0,0,0,0,0,0,0,0,0,0,0,0],"sum_hessian":[7.841036E3,3.6280776E3,4.2129585E3,1.213696E3,2.9992625E3,9.680845E2,2.4561156E2,2.0210442E3,1.6070336E3,1.1209755E3,9.000687E2,4.1443304E2,5.536514E2,1.244573E3,1.7546896E3,6.145895E2,9.924441E2,1.8004199E2,9.409334E2,6.503979E1,1.6896498E3,6.2880206E2,3.6364203E2,8.6716315E2,7.37703E1,3.1684247E2,2.3680894E2,3.0339102E2,1.3451464E1,6.719883E1,3.4723422E2,6.080296E2,2.9203912E2,1.5071881E1,4.9967903E1,1.5077043E2,4.572592E2,5.1523956E1,2.9571027E2,1.5526494E2,8.154401E1,2.268052E2,1.8806353E1,5.5033453E2,7.84675E1,1.1642269E2,3.434774E1,3.0912552E1,2.647977E2,1.3447761E1,6.0322544E1,2.5004288E2,4.1996235E1,2.5810352E2,6.694187E0,1.5245986E3,1.6505118E2,7.0219855E2,8.224E2,5.632538E2,1.3894473E2,4.1035034E2,4.120497E2,3.2805743E0,2.5482295E2,3.9487445E2,1.6837938E2,8.1997246E1,3.128772E2,2.8459662E2,1.8794384E1,5.4885225E0,1.3305861E1,4.7757767E1,5.0257678E2,5.2109995E0,4.4756905E1,1.4471114E2,7.2245197E2,3.2129208E2,4.0115988E2,1.6489046E2,2.3626942E2,5.0965534E1,2.7032657E2,3.8664665E1,1.2622579E2,2.1884822E2,7.9569836E0,9.425669E1,1.9033994E2,1.838411E2,6.498847E0,7.194307E0,6.257157E0,9.805789E1,4.6653244E1,4.4746337E0,8.973127E0,6.0704E2,7.5494843E0],"tree_param":{"num_deleted":"0","num_feature":"27","num_nodes":"101","size_leaf_vector":"1"}},{"base_weights":[1.1563017E-2,-1.960496E0,1.8877109E0,-3.4428608E0,-1.0030495E0,8.9558756E-1,3.0493565E0,4.255462E0,2.2086153E0,3.4348946E0,6.4114213E0,-4.306048E0,-2.668885E0,-6.054148E0,-3.3012452E0,-1.257512E0,1.4521782E-2,-2.4539532E-1,-2.3333707E0,4.417452E0,2.099169E0,4.7826962E0,-1.042178E-1,2.584778E-1,4.621363E-1,-2.3076847E-1,-3.8857555E-1,4.3277138E-1,-1.2876675E0,1.5568262E0,3.0075483E0,3.522946E0,-1.9016463E-1,2.0960848E0,-1.5200029E-2,8.228769E-1,1.9244172E-1,-2.7755134E0,9.1930434E-2,-2.0470546E-1,-1.2757003E0,-2.7281365E-1,-1.7406914E-3,2.9279134E0,7.8862864E-1,5.281699E0,8.3229825E-2,3.8069434E0,7.0079017E0,2.1882765E-1,-1.5011127E-1,-1.7869384E0,-4.0172864E-2,3.2826567E0,7.790683E0,2.3435147E-2,1.4274696E0,1.7659163E0,-1.6914563E-2,3.191298E-1,-5.238657E-2,1.7005123E-1,5.785644E-1,2.5930625E-1,4.3182564E-1,-2.72813E0,2.521135E-1,-3.5754688E0,-2.1430519E0,1.7441398E0,-1.20296046E-1,2.944717E-1,-5.3816035E-2,-4.5409875E0,-2.2253656E0,-1.253229E-1,5.235656E-1,7.9154E-2,3.8139112E0,-3.7496056E-2,2.0026617E-1,2.891303E0,1.2103218E0,1.17115684E-1,7.6661563E0,5.938015E-1,9.653517E-2,4.67858E0,5.225234E-2,1.00178115E-1,3.5812137E-1,-2.6096958E-1,-1.0476844E-1,-5.4036804E-2,-1.14256516E-1,1.3261881E-1,2.931969E-2,3.1004231E-2,1.2756507E-1,-1.0040519E-1,8.221117E-2],"categories":[],"categories_nodes":[],"categories_segments":[],"categories_sizes":[],"default_left":[0,0,0,0,0,0,0,0,0,0,0,0,0,0,0,0,0,0,0,0,0,0,0,0,0,0,0,0,0,0,0,0,0,0,0,0,0,0,0,0,0,0,0,0,0,0,0,0,0,0,0,0,0,0,0,0,0,0,0,0,0,0,0,0,0,0,0,0,0,0,0,0,0,0,0,0,0,0,0,0,0,0,0,0,0,0,0,0,0,0,0,0,0,0,0,0,0,0,0,0,0],"id":5,"left_children":[1,3,5,11,15,43,7,9,29,19,23,13,65,25,17,27,-1,-1,37,21,35,45,-1,-1,-1,-1,-1,-1,51,33,31,53,59,97,-1,99,-1,39,-1,-1,41,-1,-1,87,55,47,-1,49,63,-1,-1,93,-1,77,61,-1,57,81,-1,-1,-1,-1,-1,-1,-1,67,-1,73,69,71,-1,-1,-1,91,75,-1,-1,-1,79,-1,-1,83,95,-1,85,-1,-1,89,-1,-1,-1,-1,-1,-1,-1,-1,-1,-1,-1,-1,-1],"loss_changes":[2.9400312E4,5.4984834E3,4.693164E3,1.01569336E3,7.783081E2,4.774297E2,1.9021289E3,1.363081E3,5.755835E2,7.324419E2,7.288252E2,1.2624414E3,3.7110742E2,6.617383E2,7.5413916E2,5.989297E2,0E0,0E0,5.421327E2,7.686255E2,5.520065E2,4.6868115E2,0E0,0E0,0E0,0E0,0E0,0E0,4.5830444E2,6.1287915E2,8.184619E2,4.385703E2,4.0619217E2,3.5074194E2,0E0,3.4209854E2,0E0,5.544414E2,0E0,0E0,6.7804565E2,0E0,0E0,3.578485E2,4.1364636E2,6.673257E2,0E0,6.403638E2,3.740786E2,0E0,0E0,3.5390356E2,0E0,3.5859082E2,3.9564233E2,0E0,4.0928088E2,3.5815454E2,0E0,0E0,0E0,0E0,0E0,0E0,0E0,3.943955E2,0E0,4.2357568E2,5.7106006E2,4.2421603E2,0E0,0E0,0E0,3.5748975E2,5.8157336E2,0E0,0E0,0E0,3.8452393E2,0E0,0E0,4.5288745E2,3.511471E2,0E0,4.560033E2,0E0,0E0,3.92099E2,0E0,0E0,0E0,0E0,0E0,0E0,0E0,0E0,0E0,0E0,0E0,0E0,0E0],"parents":[2147483647,0,0,1,1,2,2,6,6,7,7,3,3,11,11,4,4,14,14,9,9,19,19,10,10,13,13,15,15,8,8,30,30,29,29,20,20,18,18,37,37,40,40,5,5,21,21,45,45,47,47,28,28,31,31,44,44,56,56,32,32,54,54,48,48,12,12,65,65,68,68,69,69,67,67,74,74,53,53,78,78,57,57,81,81,84,84,43,43,87,87,73,73,51,51,82,82,33,33,35,35],"right_children":[2,4,6,12,16,44,8,10,30,20,24,14,66,26,18,28,-1,-1,38,22,36,46,-1,-1,-1,-1,-1,-1,52,34,32,54,60,98,-1,100,-1,40,-1,-1,42,-1,-1,88,56,48,-1,50,64,-1,-1,94,-1,78,62,-1,58,82,-1,-1,-1,-1,-1,-1,-1,68,-1,74,70,72,-1,-1,-1,92,76,-1,-1,-1,80,-1,-1,84,96,-1,86,-1,-1,90,-1,-1,-1,-1,-1,-1,-1,-1,-1,-1,-1,-1,-1],"split_conditions":[-2.3313998E-1,-4.490881E0,3.6789217E0,9E0,1.4E1,-2.8911266E0,8E0,7E0,-1.4540367E-1,3E0,8.29677E-1,-9.709903E0,2.3E1,1.4540367E-1,-4.004539E-1,1.97918E0,1.4521782E-2,-2.4539532E-1,9.5910263E-1,3.4470737E-1,2.2968774E-1,6E0,-1.042178E-1,2.584778E-1,4.621363E-1,-2.3076847E-1,-3.8857555E-1,4.3277138E-1,-2.2800715E0,-2.5881904E-1,9.387102E-1,8.9851624E-1,-6.0303516E0,-2.2252093E-1,-1.5200029E-2,-1.0535811E0,1.9244172E-1,-5.4181194E-1,9.1930434E-2,-2.0470546E-1,1E0,-2.7281365E-1,-1.7406914E-3,5.9717007E0,2.1108248E0,2E0,8.3229825E-2,1E0,8.464441E0,2.1882765E-1,-1.5011127E-1,-3.9223847E-1,-4.0172864E-2,-7.0710677E-1,-3.18334E0,2.3435147E-2,6E0,4.5922174E0,-1.6914563E-2,3.191298E-1,-5.238657E-2,1.7005123E-1,5.785644E-1,2.5930625E-1,4.3182564E-1,-8.660254E-1,2.521135E-1,6E0,-7.0710677E-1,1.2812613E0,-1.20296046E-1,2.944717E-1,-5.3816035E-2,0E0,9.4724447E-1,-1.253229E-1,5.235656E-1,7.9154E-2,1E1,-3.7496056E-2,2.0026617E-1,9.659258E-1,-5.501288E-1,1.17115684E-1,-2.5539596E0,5.938015E-1,9.653517E-2,1.4479555E0,5.225234E-2,1.00178115E-1,3.5812137E-1,-2.6096958E-1,-1.0476844E-1,-5.4036804E-2,-1.14256516E-1,1.3261881E-1,2.931969E-2,3.1004231E-2,1.2756507E-1,-1.0040519E-1,8.221117E-2],"split_indices":[7,7,7,0,21,26,0,0,23,0,22,7,21,23,22,14,0,0,25,23,23,1,0,0,0,0,0,0,7,17,22,25,8,20,0,25,0,5,0,0,0,0,0,13,7,0,0,0,7,0,0,9,0,17,9,0,1,14,0,0,0,0,0,0,0,18,0,2,18,8,0,0,0,17,25,0,0,0,0,0,0,17,12,0,9,0,0,7,0,0,0,0,0,0,0,0,0,0,0,0,0],"split_type":[0,0,0,0,0,0,0,0,0,0,0,0,0,0,0,0,0,0,0,0,0,0,0,0,0,0,0,0,0,0,0,0,0,0,0,0,0,0,0,0,0,0,0,0,0,0,0,0,0,0,0,0,0,0,0,0,0,0,0,0,0,0,0,0,0,0,0,0,0,0,0,0,0,0,0,0,0,0,0,0,0,0,0,0,0,0,0,0,0,0,0,0,0,0,0,0,0,0,0,0,0],"sum_hessian":[7.9463003E3,3.8741248E3,4.0721753E3,1.5203086E3,2.3538162E3,2.1963477E3,1.8758278E3,7.7049457E2,1.1053331E3,5.580856E2,2.1240901E2,7.187318E2,8.015768E2,2.6233472E2,4.563971E2,1.9683617E3,3.8545453E2,1.6512761E2,2.912695E2,3.2155185E2,2.365337E2,3.04555E2,1.6996857E1,1.5436203E2,5.804698E1,1.5285028E2,1.09484436E2,5.8648176E0,1.9624968E3,6.087231E2,4.966101E2,4.2767834E2,6.893177E1,4.7230753E2,1.3641554E2,1.3930278E2,9.7230934E1,2.6358517E2,2.7684338E1,1.3621161E2,1.2737355E2,2.8551712E1,9.882184E1,1.0981139E2,2.0865361E3,2.621394E2,4.2415592E1,1.413662E2,1.2077319E2,1.2898894E2,1.237727E1,9.49259E2,1.0132379E3,4.0488248E2,2.2795864E1,1.40436E3,6.821762E2,5.7281354E2,1.0936268E2,7.990924E0,6.094085E1,1.0984996E1,1.1810867E1,6.1932053E1,5.8841145E1,7.955456E2,6.031193E0,3.2494403E2,4.7060153E2,3.4983173E1,4.3561838E2,1.3988894E1,2.099428E1,1.8945529E2,1.3548874E2,1.320878E2,3.4009337E0,9.7842705E1,3.0703976E2,1.7304008E1,2.8973575E2,1.8932462E2,3.8348892E2,1.7134682E2,1.7977798E1,1.0089319E1,7.8884797E0,5.6589394E1,5.3222004E1,2.8276995E1,2.8312397E1,1.427836E2,4.6671696E1,4.2093777E2,5.283212E2,1.1130226E2,2.7218668E2,1.2162389E2,3.5068362E2,3.1956865E1,1.0734592E2],"tree_param":{"num_deleted":"0","num_feature":"27","num_nodes":"101","size_leaf_vector":"1"}},{"base_weights":[1.0789488E-2,-2.161566E0,1.6883732E0,7.122277E-1,3.0633562E0,-3.2663026E0,-1.0392278E0,2.692287E0,5.186802E0,-5.11029E0,-2.8213496E0,3.6922898E0,2.1309772E0,3.050633E0,2.918021E-1,3.6565247E-1,1.4060658E0,5.054885E0,2.394393E0,4.115681E-1,-1.0718393E0,-1.3242816E0,8.286183E-3,4.1594696E0,1.6218431E0,3.1569095E0,-1.0057961E-1,-1.7025552E0,-5.89862E-1,-2.5790052E0,-1.440157E-1,1.530417E0,-1.0548009E0,1.1519474E0,5.2236336E-1,-5.523574E0,-4.9147535E-2,1.2865047E-1,-7.271748E-2,4.685448E0,8.004547E0,2.998052E-1,1.4549707E-1,-2.8575244E0,-1.3439993E0,5.4049484E-2,-1.6319343E0,-4.7083416E0,-1.6769029E0,2.5063962E-1,-2.157077E0,-8.830014E-2,-3.1439522E-1,-9.702112E-1,-4.969863E0,-1.3264015E-1,9.4382346E-2,-4.0344524E-1,-4.7564354E0,-1.4389596E0,1.1957422E-1,3.0744379E0,8.550113E-2,8.242712E-2,-6.068054E-3,-1.4003432E-1,1.9354968E-1,-9.9329036E-1,5.1256526E-1,1.006697E-1,3.3478007E-1,2.0472288E0,-8.381396E-2,6.1868615E-3,7.409563E-2,-1.7719802E-1,7.803529E-1,-5.4871287E-2,3.132957E-1,2.2900183E-1,6.511859E-1,-4.6337548E-1,-1.4791054E-1,-3.0618015E-1,-1.9801691E-1,-8.249393E-2,3.7651744E-1,-3.6008958E-2,-3.729254E-1,-6.811955E-2,4.2998967E-1,1.7188372E-1,3.5082914E-2,1.4745748E-1,3.284011E-1,1.5156165E-1,-3.2720768E-1,-1.2795004E-1,1.7502129E-1,9.513662E-2,-7.9800956E-2],"categories":[],"categories_nodes":[],"categories_segments":[],"categories_sizes":[],"default_left":[0,0,0,0,0,0,0,0,0,0,0,0,0,0,0,0,0,0,0,0,0,0,0,0,0,0,0,0,0,0,0,0,0,0,0,0,0,0,0,0,0,0,0,0,0,0,0,0,0,0,0,0,0,0,0,0,0,0,0,0,0,0,0,0,0,0,0,0,0,0,0,0,0,0,0,0,0,0,0,0,0,0,0,0,0,0,0,0,0,0,0,0,0,0,0,0,0,0,0,0,0],"id":6,"left_children":[1,5,3,15,7,9,19,11,39,57,65,13,61,17,-1,67,63,79,23,-1,21,27,-1,93,25,97,59,43,29,35,31,33,37,99,-1,87,-1,-1,-1,41,89,-1,-1,47,45,-1,85,51,49,-1,53,-1,-1,55,81,-1,-1,-1,83,75,-1,91,-1,-1,-1,-1,-1,71,69,-1,73,95,-1,-1,-1,-1,77,-1,-1,-1,-1,-1,-1,-1,-1,-1,-1,-1,-1,-1,-1,-1,-1,-1,-1,-1,-1,-1,-1,-1,-1],"loss_changes":[2.8720969E4,4.257909E3,5.9686045E3,6.253699E2,1.4547656E3,1.4199512E3,5.24379E2,8.821787E2,3.8796924E2,3.71875E2,3.4674414E2,8.2056934E2,3.6650195E2,5.790049E2,0E0,3.462542E2,3.661471E2,3.4069458E2,4.5221912E2,0E0,5.3181506E2,3.9189575E2,0E0,2.9523853E2,6.099122E2,2.9215735E2,3.6969214E2,3.8558032E2,4.2530734E2,4.0746417E2,5.974562E2,4.769576E2,4.0097437E2,2.9104358E2,0E0,3.0603644E2,0E0,0E0,0E0,5.7350244E2,3.0067944E2,0E0,0E0,4.8197742E2,5.0063965E2,0E0,3.06516E2,4.265022E2,4.3923502E2,0E0,4.1989752E2,0E0,0E0,4.4503442E2,3.2677222E2,0E0,0E0,0E0,3.2247656E2,3.4410828E2,0E0,2.9887622E2,0E0,0E0,0E0,0E0,0E0,3.6904776E2,4.29097E2,0E0,3.4454517E2,2.9482782E2,0E0,0E0,0E0,0E0,3.7619553E2,0E0,0E0,0E0,0E0,0E0,0E0,0E0,0E0,0E0,0E0,0E0,0E0,0E0,0E0,0E0,0E0,0E0,0E0,0E0,0E0,0E0,0E0,0E0,0E0],"parents":[2147483647,0,0,2,2,1,1,4,4,5,5,7,7,11,11,3,3,13,13,6,6,20,20,18,18,24,24,21,21,28,28,30,30,31,31,29,29,32,32,8,8,39,39,27,27,44,44,43,43,48,48,47,47,50,50,53,53,9,9,26,26,12,12,16,16,10,10,15,15,68,68,67,67,70,70,59,59,76,76,17,17,54,54,58,58,46,46,35,35,40,40,61,61,23,23,71,71,25,25,33,33],"right_children":[2,6,4,16,8,10,20,12,40,58,66,14,62,18,-1,68,64,80,24,-1,22,28,-1,94,26,98,60,44,30,36,32,34,38,100,-1,88,-1,-1,-1,42,90,-1,-1,48,46,-1,86,52,50,-1,54,-1,-1,56,82,-1,-1,-1,84,76,-1,92,-1,-1,-1,-1,-1,72,70,-1,74,96,-1,-1,-1,-1,78,-1,-1,-1,-1,-1,-1,-1,-1,-1,-1,-1,-1,-1,-1,-1,-1,-1,-1,-1,-1,-1,-1,-1,-1],"split_conditions":[-8.811214E-1,-3.977665E0,3.6789217E0,1.9077147E0,1.0719032E1,-9.709903E0,1.97918E0,8E0,8.863456E-1,1E0,2.3E1,7E0,-8.660254E-1,-3.6493642E0,2.918021E-1,-8.660254E-1,6E0,2.161337E0,1E0,4.115681E-1,1.4E1,5.9503603E0,8.286183E-3,5.0386906E0,3.09011E-1,-3.2826157E0,7E0,1E1,-9.1284585E-1,6E0,1.3E1,6E0,-1.311819E0,6.713072E-1,5.2236336E-1,1E0,-4.9147535E-2,1.2865047E-1,-7.271748E-2,-2.1917555E0,4.9814205E0,2.998052E-1,1.4549707E-1,-5.1478755E-2,1.2E1,5.4049484E-2,8.038513E0,-2.0385131E-1,-8.181002E0,2.5063962E-1,7.818315E-1,-8.830014E-2,-3.1439522E-1,1.6469319E-1,4.6662364E0,-1.3264015E-1,9.4382346E-2,-4.0344524E-1,-1.2613028E1,6.5411305E0,1.1957422E-1,-2.5881904E-1,8.550113E-2,8.242712E-2,-6.068054E-3,-1.4003432E-1,1.9354968E-1,1.2E1,-7.0710677E-1,1.006697E-1,1.8E1,1.6165286E0,-8.381396E-2,6.1868615E-3,7.409563E-2,-1.7719802E-1,3.3158286E0,-5.4871287E-2,3.132957E-1,2.2900183E-1,6.511859E-1,-4.6337548E-1,-1.4791054E-1,-3.0618015E-1,-1.9801691E-1,-8.249393E-2,3.7651744E-1,-3.6008958E-2,-3.729254E-1,-6.811955E-2,4.2998967E-1,1.7188372E-1,3.5082914E-2,1.4745748E-1,3.284011E-1,1.5156165E-1,-3.2720768E-1,-1.2795004E-1,1.7502129E-1,9.513662E-2,-7.9800956E-2],"split_indices":[7,7,7,7,7,7,14,0,25,0,21,0,22,5,0,18,1,26,0,0,21,14,0,6,12,5,2,0,22,0,0,21,26,12,0,0,0,0,0,6,14,0,0,22,0,0,13,6,6,0,19,0,0,5,14,0,0,0,7,7,0,17,0,0,0,0,0,0,18,0,21,7,0,0,0,0,5,0,0,0,0,0,0,0,0,0,0,0,0,0,0,0,0,0,0,0,0,0,0,0,0],"split_type":[0,0,0,0,0,0,0,0,0,0,0,0,0,0,0,0,0,0,0,0,0,0,0,0,0,0,0,0,0,0,0,0,0,0,0,0,0,0,0,0,0,0,0,0,0,0,0,0,0,0,0,0,0,0,0,0,0,0,0,0,0,0,0,0,0,0,0,0,0,0,0,0,0,0,0,0,0,0,0,0,0,0,0,0,0,0,0,0,0,0,0,0,0,0,0,0,0,0,0,0,0],"sum_hessian":[7.881048E3,3.4341106E3,4.4469375E3,2.6006506E3,1.8462867E3,1.7306256E3,1.703485E3,1.5716447E3,2.7464206E2,3.3642007E2,1.3942054E3,5.6502344E2,1.0066212E3,4.4022147E2,1.2480197E2,1.7343407E3,8.663099E2,1.0858498E2,3.3163647E2,5.8648176E0,1.6976202E3,1.4106573E3,2.8696286E2,1.00962296E2,2.3067418E2,1.2197081E2,1.0870338E2,9.3108655E2,4.7957074E2,8.7808975E1,3.9176178E2,1.3801941E2,2.5374236E2,1.325266E2,5.4928236E0,3.0611336E1,5.7197643E1,2.6507664E1,2.2723468E2,2.3315771E2,4.148435E1,1.27030045E2,1.0612768E2,2.2057487E2,7.105117E2,7.47989E1,6.3571277E2,8.59045E1,1.3467036E2,8.891441E0,1.2577893E2,3.180397E1,5.4100536E1,8.8455315E1,3.7323616E1,5.529626E1,3.315905E1,3.4228878E1,3.021912E2,7.120173E1,3.750165E1,2.922186E2,7.144026E2,7.3380615E2,1.3250371E2,1.3866848E3,7.5206585E0,1.6920357E2,1.5651372E3,1.6178961E2,1.4033475E3,3.2299118E1,1.3690445E2,1.192232E3,2.1111552E2,3.593845E1,3.5263275E1,2.6345648E1,8.917628E0,1.03784164E2,4.8008146E0,1.1309558E1,2.6014057E1,9.786585E1,2.0432533E2,6.322012E2,3.511598E0,9.2941675E0,2.1317167E1,3.1479743E0,3.8336376E1,2.4682954E2,4.5389053E1,6.9526405E1,3.1435886E1,2.884144E1,3.4576776E0,8.19053E0,1.1378028E2,1.0321217E2,2.9314419E1],"tree_param":{"num_deleted":"0","num_feature":"27","num_nodes":"101","size_leaf_vector":"1"}},{"base_weights":[-8.056768E-3,-2.0686588E0,1.4100705E0,4.8093787E-1,2.70457E0,-3.9298398E0,-1.526251E0,2.3555827E0,4.844619E0,-1.721589E0,2.4369193E-2,-2.4088404E0,-1.2551762E0,-5.103878E0,-3.2307124E0,3.1438878E0,1.9181019E0,2.8552945E0,7.0675035E0,1.4559265E0,3.1453462E0,2.0962295E-1,2.110515E0,1.4970754E0,2.2368865E-1,3.7898514E0,2.0826107E-2,-1.6336711E-1,3.963587E-1,6.14687E0,1.6590253E-1,3.9140365E-1,-1.295286E0,-5.318474E0,1.4106086E-1,-1.4040657E0,1.7431273E0,2.4766739E-1,5.7215907E-2,9.3237656E-1,2.5106466E0,1.6755389E0,-5.8604155E-2,-4.1171014E-1,5.688004E-1,3.783112E-1,-2.0904453E0,1.2707582E0,-1.1251246E0,1.6005912E-1,-4.2768085E-1,3.1593373E-1,2.1194444E0,-5.667973E-2,2.3058228E-1,4.9610224E-1,2.6724234E-1,1.004276E-1,3.0321476E-1,-2.566135E0,2.2507711E-1,-3.257263E0,1.2869051E-1,-3.0185917E-1,1.5011443E-1,3.9780417E-1,-7.798965E-2,5.2067593E-2,2.9748743E-3,9.239907E-2,-1.4832417E0,-7.090872E-2,-5.0578654E-1,2.7904028E-1,-6.9494255E-2,-2.4241374E0,1.2702511E-1,-6.2368367E-2,-4.1313066E0,-3.582086E0,-5.951024E-1,-2.8864905E-1,-1.5372369E-1,1.9021052E-1,8.3316624E-1,2.1692267E-1,2.2537477E-2,6.387112E-3,2.7969294E0,4.5790777E0,7.935579E-2,2.9097E0,4.9863692E-2,8.741554E-2,3.1350774E-1,-1.2251816E-1,-3.9703175E-1,1.8578066E-1,4.9756747E-1,-5.310152E-2,-2.5583455E-1],"categories":[],"categories_nodes":[],"categories_segments":[],"categories_sizes":[],"default_left":[0,0,0,0,0,0,0,0,0,0,0,0,0,0,0,0,0,0,0,0,0,0,0,0,0,0,0,0,0,0,0,0,0,0,0,0,0,0,0,0,0,0,0,0,0,0,0,0,0,0,0,0,0,0,0,0,0,0,0,0,0,0,0,0,0,0,0,0,0,0,0,0,0,0,0,0,0,0,0,0,0,0,0,0,0,0,0,0,0,0,0,0,0,0,0,0,0,0,0,0,0],"id":7,"left_children":[1,5,3,37,7,13,9,15,29,11,-1,59,31,33,27,17,19,21,65,39,49,-1,23,25,-1,57,-1,-1,-1,55,-1,-1,35,81,-1,69,53,43,-1,41,51,91,-1,45,67,47,75,83,73,-1,-1,-1,87,-1,-1,-1,-1,-1,-1,95,61,63,-1,-1,-1,-1,-1,-1,-1,-1,71,-1,-1,-1,-1,77,-1,-1,79,99,-1,-1,-1,-1,85,-1,-1,-1,89,97,-1,93,-1,-1,-1,-1,-1,-1,-1,-1,-1],"loss_changes":[2.3132125E4,3.2577285E3,5.639741E3,4.3734723E2,1.4632734E3,5.977217E2,9.8774756E2,5.809492E2,5.2178174E2,7.3045605E2,0E0,3.816963E2,5.0331445E2,4.656211E2,5.352075E2,6.807666E2,6.144734E2,5.9355273E2,3.7510034E2,4.3456458E2,4.273501E2,0E0,5.5362317E2,7.229375E2,0E0,3.9114392E2,0E0,0E0,0E0,3.9983203E2,0E0,0E0,4.467456E2,3.3065674E2,0E0,3.3991333E2,4.0143677E2,4.3147128E2,0E0,8.318988E2,4.021172E2,3.1647437E2,0E0,8.850882E2,3.438586E2,6.0888684E2,3.337326E2,3.2540854E2,3.3807553E2,0E0,0E0,0E0,3.2000134E2,0E0,0E0,0E0,0E0,0E0,0E0,3.1559375E2,4.341827E2,3.889374E2,0E0,0E0,0E0,0E0,0E0,0E0,0E0,0E0,4.055818E2,0E0,0E0,0E0,0E0,3.917964E2,0E0,0E0,3.5340845E2,3.077655E2,0E0,0E0,0E0,0E0,3.2713184E2,0E0,0E0,0E0,3.7164075E2,3.0934668E2,0E0,5.322412E2,0E0,0E0,0E0,0E0,0E0,0E0,0E0,0E0,0E0],"parents":[2147483647,0,0,2,2,1,1,4,4,6,6,9,9,5,5,7,7,15,15,16,16,17,17,22,22,23,23,14,14,8,8,12,12,13,13,32,32,3,3,19,19,39,39,37,37,43,43,45,45,20,20,40,40,36,36,29,29,25,25,11,11,60,60,61,61,18,18,44,44,35,35,70,70,48,48,46,46,75,75,78,78,33,33,47,47,84,84,52,52,88,88,41,41,91,91,59,59,89,89,79,79],"right_children":[2,6,4,38,8,14,10,16,30,12,-1,60,32,34,28,18,20,22,66,40,50,-1,24,26,-1,58,-1,-1,-1,56,-1,-1,36,82,-1,70,54,44,-1,42,52,92,-1,46,68,48,76,84,74,-1,-1,-1,88,-1,-1,-1,-1,-1,-1,96,62,64,-1,-1,-1,-1,-1,-1,-1,-1,72,-1,-1,-1,-1,78,-1,-1,80,100,-1,-1,-1,-1,86,-1,-1,-1,90,98,-1,94,-1,-1,-1,-1,-1,-1,-1,-1,-1],"split_conditions":[-1.2246075E0,-7.1602516E0,3.463836E0,2.0439596E0,1.0719032E1,-1.0416244E1,1.7E1,8E0,-2.0814388E0,-3.959124E0,2.4369193E-2,9.5910263E-1,1.97918E0,1.4E1,4.0734673E0,7E0,3.232524E1,-2.2300146E0,6.6657513E-1,2.2968774E-1,7.0710677E-1,2.0962295E-1,7E0,1E0,2.2368865E-1,3.4639912E0,2.0826107E-2,-1.6336711E-1,3.963587E-1,5.700211E0,1.6590253E-1,3.9140365E-1,9.5910263E-1,1.5062767E1,1.4106086E-1,1E0,-4.6997675E-1,1.4E1,5.7215907E-2,-2.5881904E-1,-7.818315E-1,-8.2461625E-1,-5.8604155E-2,2.0809417E0,-3.5508115E-2,7.6246524E-1,9.5910263E-1,-2.2252093E-1,-1.6677265E0,1.6005912E-1,-4.2768085E-1,3.1593373E-1,-5E-1,-5.667973E-2,2.3058228E-1,4.9610224E-1,2.6724234E-1,1.004276E-1,3.0321476E-1,9.4724447E-1,-7.8607744E-1,1.6674776E0,1.2869051E-1,-3.0185917E-1,1.5011443E-1,3.9780417E-1,-7.798965E-2,5.2067593E-2,2.9748743E-3,9.239907E-2,9.4724447E-1,-7.090872E-2,-5.0578654E-1,2.7904028E-1,-6.9494255E-2,4E0,1.2702511E-1,-6.2368367E-2,9.4724447E-1,3.1185194E1,-5.951024E-1,-2.8864905E-1,-1.5372369E-1,1.9021052E-1,-1.6309673E1,2.1692267E-1,2.2537477E-2,6.387112E-3,-2.3120072E0,5.729147E-2,7.935579E-2,4.3388373E-1,4.9863692E-2,8.741554E-2,3.1350774E-1,-1.2251816E-1,-3.9703175E-1,1.8578066E-1,4.9756747E-1,-5.310152E-2,-2.5583455E-1],"split_indices":[7,7,7,7,7,7,21,0,6,7,0,25,14,0,11,21,24,5,23,23,17,0,0,0,0,6,0,0,0,14,0,0,25,15,0,0,23,0,0,17,19,25,0,6,26,25,25,20,12,0,0,0,17,0,0,0,0,0,0,25,26,5,0,0,0,0,0,0,0,0,25,0,0,0,0,1,0,0,25,24,0,0,0,0,16,0,0,0,5,10,0,19,0,0,0,0,0,0,0,0,0],"split_type":[0,0,0,0,0,0,0,0,0,0,0,0,0,0,0,0,0,0,0,0,0,0,0,0,0,0,0,0,0,0,0,0,0,0,0,0,0,0,0,0,0,0,0,0,0,0,0,0,0,0,0,0,0,0,0,0,0,0,0,0,0,0,0,0,0,0,0,0,0,0,0,0,0,0,0,0,0,0,0,0,0,0,0,0,0,0,0,0,0,0,0,0,0,0,0,0,0,0,0,0,0],"sum_hessian":[7.916007E3,3.2270134E3,4.688993E3,2.729723E3,1.9592704E3,7.28226E2,2.4987874E3,1.684562E3,2.7470834E2,2.278816E3,2.1997136E2,9.2129767E2,1.3575183E3,2.7179727E2,4.5642874E2,6.012163E2,1.0833457E3,5.6002527E2,4.1191006E1,7.8697485E2,2.9637082E2,1.9239954E2,3.6762576E2,2.9412915E2,7.349661E1,9.370878E1,2.0042036E2,4.522904E2,4.1383247E0,1.4513097E2,1.2957736E2,5.8648176E0,1.3516534E3,2.6468222E2,7.115043E0,1.3049352E3,4.6718323E1,2.0376641E3,6.9205896E2,5.2591705E2,2.6105783E2,3.898132E2,1.3610384E2,6.673674E2,1.3702966E3,4.5380453E2,2.1356282E2,2.8476624E2,1.6903831E2,2.9337082E2,3E0,2.3592402E1,2.3746542E2,2.3610426E1,2.3107899E1,2.1515888E1,1.2361508E2,5.4310146E1,3.9398632E1,8.6937946E2,5.1918236E1,2.1190283E1,3.0727951E1,1.4520334E1,6.6699486E0,3.6730396E1,4.4606104E0,6.948532E2,6.754435E2,3.0666668E1,1.2742684E3,1.2690994E3,5.1690855E0,6.968048E0,1.6207027E2,1.993576E2,1.4205221E1,1.1906688E2,8.0290726E1,7.514183E1,5.1488905E0,2.096266E2,5.5055622E1,4.086923E1,2.43897E2,2.29412E1,2.209558E2,6.033215E1,1.7713327E2,7.046478E1,1.06668495E2,1.3553432E2,2.5427888E2,1.0247531E2,3.3059013E1,8.592069E2,1.01725445E1,6.1746914E1,8.717864E0,2.9772865E1,4.536897E1],"tree_param":{"num_deleted":"0","num_feature":"27","num_nodes":"101","size_leaf_vector":"1"}},{"base_weights":[2.4106251E-2,-1.8668815E0,1.5132655E0,6.490201E-1,2.7045114E0,-2.809741E0,-9.651554E-1,2.1675277E0,4.442991E0,-4.9296107E0,-2.5164535E0,3.7845183E-2,4.7744474E0,5.202507E0,1.902955E0,2.8343058E0,1.6496445E0,-8.8112615E-2,1.8470056E0,3.5340204E0,1.707085E0,-1.1917082E0,1.1016252E-2,5.488904E-1,-1.218259E0,-7.0087716E-2,-2.7920792E0,-2.4642591E0,-4.0190372E0,-2.2537693E-1,1.6305806E-2,-2.8276613E0,-7.3437005E-1,1.3654782E-1,-1.7975688E0,2.7274652E0,-2.686344E0,-3.710971E-2,-2.5196117E-1,3.9527395E-1,6.407566E-2,3.0140555E-1,4.0040355E0,3.171938E-1,1.1750202E-2,-9.7610545E-1,5.507748E-1,3.6974366E0,5.990467E-1,2.0176739E-1,-1.4567994E-1,1.9103338E-1,9.5990133E-1,2.0536318E0,-7.395779E-2,-2.3317431E-1,1.2645613E-1,1.3469528E-1,1.2884617E0,-2.130212E-2,4.1235057E-1,-1.7879144E0,-7.8468174E-1,-2.055891E-1,-1.3436459E0,-8.317672E-1,5.434946E-1,-2.5212643E-1,1.5541324E-1,-2.9019191E0,1.6793281E-1,-2.9782572E0,1.6840468E-1,-1.9802135E-1,-1.2253484E-1,1.8157506E0,1.8615028E-2,2.5011587E-1,4.9256343E-2,5.381942E-1,-8.236998E-2,-4.308146E-2,4.1534824E0,1.11228995E-1,5.755967E-1,1.4128557E-1,2.3607102E-1,2.7505112E-1,-1.1734749E0,1.080573E0,-1.02430485E-1,-3.4324446E-1,6.900663E-2,-3.1576798E0,-4.4794355E-2,-2.8968143E-1,-3.880449E-2,7.514455E-2,-8.056182E-2,3.6843494E-1,5.785525E-2],"categories":[],"categories_nodes":[],"categories_segments":[],"categories_sizes":[],"default_left":[0,0,0,0,0,0,0,0,0,0,0,0,0,0,0,0,0,0,0,0,0,0,0,0,0,0,0,0,0,0,0,0,0,0,0,0,0,0,0,0,0,0,0,0,0,0,0,0,0,0,0,0,0,0,0,0,0,0,0,0,0,0,0,0,0,0,0,0,0,0,0,0,0,0,0,0,0,0,0,0,0,0,0,0,0,0,0,0,0,0,0,0,0,0,0,0,0,0,0,0,0],"id":8,"left_children":[1,5,3,39,7,9,21,15,11,67,25,-1,13,41,43,19,17,-1,57,85,51,23,-1,-1,61,-1,27,31,29,-1,-1,69,33,-1,35,59,37,-1,-1,45,-1,-1,47,-1,-1,97,75,49,-1,-1,-1,-1,53,55,-1,-1,-1,-1,99,-1,-1,63,65,-1,79,87,-1,-1,-1,71,-1,73,-1,-1,-1,77,-1,-1,-1,81,-1,-1,83,-1,-1,-1,-1,89,93,91,-1,-1,-1,95,-1,-1,-1,-1,-1,-1,-1],"loss_changes":[2.2032723E4,2.9306572E3,4.5064014E3,4.2403198E2,1.7180771E3,1.0476592E3,4.75015E2,4.855381E2,5.283994E2,3.5879785E2,4.4307715E2,0E0,4.8962695E2,3.9432227E2,3.9286023E2,4.8481592E2,5.385559E2,0E0,3.7717065E2,3.1675684E2,3.8555682E2,4.870923E2,0E0,0E0,3.6479932E2,0E0,4.7486914E2,5.857046E2,6.2926E2,0E0,0E0,3.5763965E2,6.055508E2,0E0,4.9964426E2,3.6688977E2,4.9196527E2,0E0,0E0,3.905333E2,0E0,0E0,3.8621948E2,0E0,0E0,3.127564E2,3.554711E2,4.1441345E2,0E0,0E0,0E0,0E0,4.7419202E2,4.3712628E2,0E0,0E0,0E0,0E0,3.1010016E2,0E0,0E0,6.8291016E2,4.6901965E2,0E0,3.4228156E2,3.1593768E2,0E0,0E0,0E0,3.6821826E2,0E0,3.8161816E2,0E0,0E0,0E0,5.216891E2,0E0,0E0,0E0,4.1998688E2,0E0,0E0,3.3012952E2,0E0,0E0,0E0,0E0,3.7551205E2,3.2831317E2,3.8970197E2,0E0,0E0,0E0,4.8063214E2,0E0,0E0,0E0,0E0,0E0,0E0,0E0],"parents":[2147483647,0,0,2,2,1,1,4,4,5,5,8,8,12,12,7,7,16,16,15,15,6,6,21,21,10,10,26,26,28,28,27,27,32,32,34,34,36,36,3,3,13,13,14,14,39,39,42,42,47,47,20,20,52,52,53,53,18,18,35,35,24,24,61,61,62,62,9,9,31,31,69,69,71,71,46,46,75,75,64,64,79,79,82,82,19,19,65,65,87,87,89,89,88,88,93,93,45,45,58,58],"right_children":[2,6,4,40,8,10,22,16,12,68,26,-1,14,42,44,20,18,-1,58,86,52,24,-1,-1,62,-1,28,32,30,-1,-1,70,34,-1,36,60,38,-1,-1,46,-1,-1,48,-1,-1,98,76,50,-1,-1,-1,-1,54,56,-1,-1,-1,-1,100,-1,-1,64,66,-1,80,88,-1,-1,-1,72,-1,74,-1,-1,-1,78,-1,-1,-1,82,-1,-1,84,-1,-1,-1,-1,90,94,92,-1,-1,-1,96,-1,-1,-1,-1,-1,-1,-1],"split_conditions":[-8.811214E-1,-4.0129213E0,3.6789217E0,2.1108248E0,9.03092E0,-1.11159935E1,1.4E1,1.2E1,4.7286754E0,1.4E1,-1.5503826E0,3.7845183E-2,5.9238377E0,3.4030306E-1,-3.4949937E0,3.3387882E-1,1.4E1,-8.8112615E-2,-1.7756099E0,6.949355E-1,1E0,1.97918E0,1.1016252E-2,5.488904E-1,-2.5881904E-1,-7.0087716E-2,8.660254E-1,5E-1,4.277142E0,-2.2537693E-1,1.6305806E-2,2.3E1,7.0710677E-1,1.3654782E-1,-8.5089934E-1,-1.0877078E1,-6.657063E0,-3.710971E-2,-2.5196117E-1,-8.660254E-1,6.407566E-2,3.0140555E-1,3.0904953E0,3.171938E-1,1.1750202E-2,1.2E1,-7.0710677E-1,9.7706383E-1,5.990467E-1,2.0176739E-1,-1.4567994E-1,1.9103338E-1,8.847557E-1,2E0,-7.395779E-2,-2.3317431E-1,1.2645613E-1,1.3469528E-1,2.9408371E0,-2.130212E-2,4.1235057E-1,1E1,7E0,-2.055891E-1,1.2E1,-7.6991105E-1,5.434946E-1,-2.5212643E-1,1.5541324E-1,9.5910263E-1,1.6793281E-1,-7.1602516E0,1.6840468E-1,-1.9802135E-1,-1.2253484E-1,-2.673986E0,1.8615028E-2,2.5011587E-1,4.9256343E-2,6.3465195E0,-8.236998E-2,-4.308146E-2,8.863456E-1,1.11228995E-1,5.755967E-1,1.4128557E-1,2.3607102E-1,1.4976802E0,-8.9829177E-1,4.055235E0,-1.02430485E-1,-3.4324446E-1,6.900663E-2,6E0,-4.4794355E-2,-2.8968143E-1,-3.880449E-2,7.514455E-2,-8.056182E-2,3.6843494E-1,5.785525E-2],"split_indices":[7,7,7,7,7,7,21,0,14,0,10,0,6,8,5,6,0,0,26,26,0,14,0,0,18,0,17,17,5,0,0,21,17,0,12,16,7,0,0,18,0,0,11,0,0,0,18,22,0,0,0,0,12,0,0,0,0,0,14,0,0,0,21,0,0,12,0,0,0,25,0,7,0,0,0,8,0,0,0,13,0,0,25,0,0,0,0,26,22,13,0,0,0,0,0,0,0,0,0,0,0],"split_type":[0,0,0,0,0,0,0,0,0,0,0,0,0,0,0,0,0,0,0,0,0,0,0,0,0,0,0,0,0,0,0,0,0,0,0,0,0,0,0,0,0,0,0,0,0,0,0,0,0,0,0,0,0,0,0,0,0,0,0,0,0,0,0,0,0,0,0,0,0,0,0,0,0,0,0,0,0,0,0,0,0,0,0,0,0,0,0,0,0,0,0,0,0,0,0,0,0,0,0,0,0],"sum_hessian":[7.8241704E3,3.44702E3,4.37715E3,2.5367478E3,1.8404022E3,1.685076E3,1.7619441E3,1.4060885E3,4.343137E2,2.0479825E2,1.4802778E3,3.597089E1,3.983428E2,3.4666443E2,5.167838E1,6.146809E2,7.914076E2,4.284678E1,7.485608E2,3.7925818E2,2.3542273E2,1.4801514E3,2.8179272E2,3.163699E0,1.4769877E3,2.9964966E2,1.1806282E3,9.3169727E2,2.4893086E2,2.1961722E2,2.9313648E1,7.699513E2,1.6174597E2,3.7510696E1,1.2423527E2,2.0395323E1,1.0383995E2,5.816235E1,4.5677597E1,1.8313347E3,7.0541327E2,1.9345587E2,1.5320856E2,1.3786645E1,3.7891735E1,1.8650674E2,1.6448279E3,1.477014E2,5.5071535E0,1.3894107E2,8.760328E0,5.9850105E1,1.7557263E2,1.216789E2,5.3893726E1,8.741408E0,1.1293749E2,2.8624536E2,4.6231546E2,1.3108489E1,7.2868333E0,6.383241E2,8.386636E2,9.94204E1,5.389037E2,8.353522E2,3.311364E0,1.9947403E2,5.324214E0,7.609182E2,9.033056E0,7.518641E2,9.054178E0,2.3294786E2,5.189162E2,1.9571396E2,1.449114E3,3.8690598E1,1.5702336E2,8.1954445E1,4.5694925E2,5.8872E1,2.3082443E1,1.849598E1,4.586464E0,2.5175063E2,1.2750756E2,1.9705951E2,6.3829266E2,1.4700372E2,5.0055794E1,5.727604E0,1.4127611E2,7.3754486E1,5.645382E2,3.407552E1,3.9678963E1,3.9211998E1,1.4729474E2,7.8506465E0,4.544648E2],"tree_param":{"num_deleted":"0","num_feature":"27","num_nodes":"101","size_leaf_vector":"1"}},{"base_weights":[2.28439E-3,-1.8120471E0,1.4082158E0,-2.8095746E0,-1.2183211E0,2.4221733E0,1.0209314E0,1.6934968E0,5.330364E0,-4.767542E0,-2.244156E0,5.0038314E-1,1.7988861E0,2.7585468E0,5.451354E-1,3.144131E0,-1.7516734E-1,3.7457356E0,-5.7377255E-1,-1.1291016E0,-3.1897197E0,-1.7424347E0,-3.5603923E-1,-3.071444E-1,2.945961E0,-1.6007825E0,2.9971166E0,-1.356328E0,-5.4890865E-1,-1.9527638E0,9.15768E-1,3.6456096E0,-1.5714328E-1,-2.115613E0,-2.0958035E-1,-1.335598E0,1.3892974E0,-8.106238E-1,-3.6964262E-1,-1.9892406E-1,-2.5281837E0,-3.2118037E0,3.5295866E-2,1.9707687E-1,-2.9800177E-1,1.265121E-2,2.0691013E0,-1.2543692E-1,-2.7361482E-1,2.810998E-1,1.832893E-2,-5.684802E-2,1.0818704E-1,4.137087E0,3.708052E-2,2.8908377E0,2.6825985E-1,2.9246146E-2,-1.9929231E0,2.608149E-1,-2.490447E-1,-2.1874914E0,-1.9595305E-2,-1.3498914E-1,1.7478205E-1,2.7572917E-2,-1.1717787E-1,8.136693E0,5.9002005E-2,1.0389069E-1,7.386129E-1,-2.814151E-1,2.636996E-1,-1.3509132E-1,1.056291E-1,1.6914986E-1,-5.053061E-2,-2.9908118E0,9.182727E-2,-4.2505107E0,-2.7839297E-2,-1.4009677E-1,-6.8147144E0,-3.8435933E-1,1.0349485E-1,1.1516265E0,-2.5364468E0,-3.2602859E0,9.894932E-2,3.3070162E-1,-1.1255371E-1,-2.7335662E-1,-1.05807915E-1,-1.638657E-1,-9.263601E-2,-1.9128284E-1,1.17727935E-1,1.2895829E-3,2.4604997E-1,-2.1588225E-2,2.3077396E-1],"categories":[],"categories_nodes":[],"categories_segments":[],"categories_sizes":[],"default_left":[0,0,0,0,0,0,0,0,0,0,0,0,0,0,0,0,0,0,0,0,0,0,0,0,0,0,0,0,0,0,0,0,0,0,0,0,0,0,0,0,0,0,0,0,0,0,0,0,0,0,0,0,0,0,0,0,0,0,0,0,0,0,0,0,0,0,0,0,0,0,0,0,0,0,0,0,0,0,0,0,0,0,0,0,0,0,0,0,0,0,0,0,0,0,0,0,0,0,0,0,0],"id":9,"left_children":[1,3,5,9,21,7,11,13,49,47,19,57,45,15,23,17,-1,53,31,25,33,29,99,35,63,27,67,39,-1,61,97,71,-1,85,-1,37,73,65,-1,41,77,43,-1,-1,-1,-1,51,-1,-1,-1,-1,-1,-1,55,-1,75,-1,-1,59,95,-1,93,-1,-1,-1,-1,-1,69,-1,-1,-1,-1,-1,-1,-1,-1,-1,79,-1,81,-1,-1,83,-1,-1,89,87,91,-1,-1,-1,-1,-1,-1,-1,-1,-1,-1,-1,-1,-1],"loss_changes":[2.0213979E4,2.0490586E3,1.7532568E3,1.4291045E3,9.8017505E2,2.6149883E3,1.308332E3,1.2068599E3,4.985293E2,5.2157324E2,1.056083E3,4.6583612E2,5.3918994E2,1.2502617E3,9.715394E2,1.0793687E3,0E0,4.8585156E2,7.468269E2,8.945548E2,6.332793E2,7.541875E2,3.5129395E2,6.1136914E2,4.4062524E2,9.6821326E2,4.3448132E2,5.455567E2,0E0,4.5562305E2,3.6122287E2,4.2111264E2,0E0,3.7498413E2,0E0,7.11063E2,4.2038806E2,4.367483E2,0E0,5.605087E2,4.0706934E2,9.8240625E2,0E0,0E0,0E0,0E0,4.945415E2,0E0,0E0,0E0,0E0,0E0,0E0,6.124331E2,0E0,4.187749E2,0E0,0E0,5.024059E2,3.721542E2,0E0,3.728877E2,0E0,0E0,0E0,0E0,0E0,5.0901044E2,0E0,0E0,0E0,0E0,0E0,0E0,0E0,0E0,0E0,5.5195276E2,0E0,4.2445972E2,0E0,0E0,3.8481494E2,0E0,0E0,6.008068E2,7.967584E2,5.32147E2,0E0,0E0,0E0,0E0,0E0,0E0,0E0,0E0,0E0,0E0,0E0,0E0,0E0],"parents":[2147483647,0,0,1,1,2,2,5,5,3,3,6,6,7,7,13,13,15,15,10,10,4,4,14,14,19,19,25,25,21,21,18,18,20,20,23,23,35,35,27,27,39,39,41,41,12,12,9,9,8,8,46,46,17,17,53,53,11,11,58,58,29,29,24,24,37,37,26,26,67,67,31,31,36,36,55,55,40,40,77,77,79,79,82,82,33,33,86,86,85,85,87,87,61,61,59,59,30,30,22,22],"right_children":[2,4,6,10,22,8,12,14,50,48,20,58,46,16,24,18,-1,54,32,26,34,30,100,36,64,28,68,40,-1,62,98,72,-1,86,-1,38,74,66,-1,42,78,44,-1,-1,-1,-1,52,-1,-1,-1,-1,-1,-1,56,-1,76,-1,-1,60,96,-1,94,-1,-1,-1,-1,-1,70,-1,-1,-1,-1,-1,-1,-1,-1,-1,80,-1,82,-1,-1,84,-1,-1,90,88,92,-1,-1,-1,-1,-1,-1,-1,-1,-1,-1,-1,-1,-1],"split_conditions":[-9.5137316E-1,1E1,8E0,-9.709903E0,-2.7042181E0,7E0,3.0669205E0,7.0710677E-1,8.437756E-1,-5.147928E-1,3.130802E1,7.0710677E-1,-9.020302E-1,6.405932E-1,4.5475513E-1,7.215011E0,-1.7516734E-1,6E0,1E0,9.5910263E-1,1.7928027E0,2.5881904E-1,2.3E1,6E0,-6.3825136E-1,9.417685E-1,9.539137E0,5E0,-5.4890865E-1,1.7E1,-4.2904757E-2,-2.3173459E0,-1.5714328E-1,3E0,-2.0958035E-1,3.2261055E1,1E0,-6.4732873E-1,-3.6964262E-1,1E0,-1.4294876E0,2.4636127E-1,3.5295866E-2,1.9707687E-1,-2.9800177E-1,1.265121E-2,1E1,-1.2543692E-1,-2.7361482E-1,2.810998E-1,1.832893E-2,-5.684802E-2,1.0818704E-1,2E0,3.708052E-2,1E0,2.6825985E-1,2.9246146E-2,5E0,-1.7960429E0,-2.490447E-1,-6.402155E0,-1.9595305E-2,-1.3498914E-1,1.7478205E-1,2.7572917E-2,-1.1717787E-1,-1.7269933E0,5.9002005E-2,1.0389069E-1,7.386129E-1,-2.814151E-1,2.636996E-1,-1.3509132E-1,1.056291E-1,1.6914986E-1,-5.053061E-2,7.463799E-1,9.182727E-2,6.234898E-1,-2.7839297E-2,-1.4009677E-1,7.44246E0,-3.8435933E-1,1.0349485E-1,-3.474587E0,1E0,-1.7271346E0,9.894932E-2,3.3070162E-1,-1.1255371E-1,-2.7335662E-1,-1.05807915E-1,-1.638657E-1,-9.263601E-2,-1.9128284E-1,1.17727935E-1,1.2895829E-3,2.4604997E-1,-2.1588225E-2,2.3077396E-1],"split_indices":[7,0,0,7,7,0,7,17,23,23,24,17,23,23,23,6,0,1,0,25,6,17,21,0,10,25,15,0,0,21,23,26,0,0,0,24,1,8,0,0,7,23,0,0,0,0,0,0,0,0,0,0,0,0,0,0,0,0,2,6,0,7,0,0,0,0,0,10,0,0,0,0,0,0,0,0,0,5,0,20,0,0,13,0,0,6,17,26,0,0,0,0,0,0,0,0,0,0,0,0,0],"split_type":[0,0,0,0,0,0,0,0,0,0,0,0,0,0,0,0,0,0,0,0,0,0,0,0,0,0,0,0,0,0,0,0,0,0,0,0,0,0,0,0,0,0,0,0,0,0,0,0,0,0,0,0,0,0,0,0,0,0,0,0,0,0,0,0,0,0,0,0,0,0,0,0,0,0,0,0,0,0,0,0,0,0,0,0,0,0,0,0,0,0,0,0,0,0,0,0,0,0,0,0,0],"sum_hessian":[7.9244854E3,3.459743E3,4.464742E3,1.2908933E3,2.1688496E3,1.2339939E3,3.2307483E3,9.867535E2,2.4724046E2,2.8925177E2,1.00164154E3,1.9355955E3,1.2951528E3,5.1194678E2,4.748067E2,4.8256897E2,2.937781E1,4.1535867E2,6.72103E1,4.596276E2,5.420139E2,1.3489362E3,8.199135E2,3.504123E2,1.2439441E2,4.1247635E2,4.715122E1,4.022366E2,1.0239757E1,1.2500286E3,9.890769E1,2.5828176E1,4.1382114E1,2.7272144E2,2.692925E2,2.1815683E2,1.3225545E2,2.0114919E2,1.7007648E1,2.0236644E2,1.9987016E2,4.731128E1,1.5505516E2,1.3439576E1,3.38717E1,1.9325862E2,1.1018942E3,7.813025E1,2.1112154E2,2.2848517E2,1.8755293E1,4.5464016E1,1.0564302E3,3.6727042E2,4.8088257E1,1.9015904E2,1.7711139E2,1.8634541E3,7.214135E1,4.171576E1,3.0425592E1,1.0858843E3,1.6414423E2,1.2224316E1,1.1217009E2,1.0764097E2,9.350822E1,1.219412E1,3.49571E1,6.531172E0,5.6629486E0,4.03104E0,2.1797136E1,2.063536E1,1.11620094E2,1.6634572E2,2.3813316E1,1.80864E2,1.900617E1,1.1899124E2,6.187275E1,7.714069E1,4.185055E1,3.752143E1,4.3291225E0,3.111919E1,2.4160225E2,2.0847986E2,3.3122383E1,1.18632965E1,1.9255894E1,6.710815E1,1.4137172E2,2.216942E2,8.6419006E2,1.4167755E1,2.7548002E1,8.129752E1,1.7610163E1,8.06451E2,1.346251E1],"tree_param":{"num_deleted":"0","num_feature":"27","num_nodes":"101","size_leaf_vector":"1"}},{"base_weights":[2.0250399E-2,-1.8528692E0,1.2954551E0,5.1421696E-1,2.3359754E0,-2.8163679E0,-9.6269894E-1,2.025347E0,4.2954144E0,-4.799456E0,-2.5211036E0,4.9930916E0,1.1458385E0,1.9876664E0,-3.9370993E-1,3.46166E-1,-9.9111885E-1,-1.1931977E0,1.1108102E-1,3.3096954E-1,1.25672E0,9.787874E-3,8.4965624E-2,1.9692444E0,5.753284E0,-1.4252628E-1,3.7226182E-1,2.4520543E0,1.4984286E0,8.4745216E-1,2.219992E0,1.2763916E-1,-1.56663E-2,4.2568E0,3.478903E-1,4.041272E0,7.299396E-1,1.5582734E-1,-2.4589898E-1,-2.6545835E0,-3.1724174E-2,4.9120378E-2,4.4287363E-1,-6.556196E-2,4.5406364E-2,-2.494207E-1,7.963852E-2,3.3430488E0,7.8811586E-2,1.8484998E0,5.423023E0,3.4350023E0,-8.126211E-2,5.563029E0,2.927261E0,3.0088222E-1,-1.5568495E-1,8.320581E-2,2.634828E-1,3.046451E-1,-1.21982E0,-7.321258E-2,-4.4728702E-1,3.4165537E-1,-9.981134E-2,4.517726E-3,2.484325E-1,4.9200373E0,6.974969E-1,-6.348172E-2,2.8953126E-1,-2.7626452E0,-6.6526616E-1,-2.5797715E0,-4.5829153E0,-2.5166395E-1,1.0673759E-1,-2.1642268E0,2.7907593E0,3.804527E-1,-1.4662905E-1,5.121195E-2,5.400474E-1,7.593771E-2,-2.6422238E0,-9.083082E-2,1.0586014E0,7.2504714E-2,-2.4119213E-2,1.8836531E-1,-2.6791627E0,-1.4932197E-1,-1.9815928E0,9.9431473E-1,-1.22902304E-1,4.7266173E-1,2.1635372E-2,4.5452055E-1,-2.4678202E-2,3.6686206E-1,1.1609751E-1],"categories":[],"categories_nodes":[],"categories_segments":[],"categories_sizes":[],"default_left":[0,0,0,0,0,0,0,0,0,0,0,0,0,0,0,0,0,0,0,0,0,0,0,0,0,0,0,0,0,0,0,0,0,0,0,0,0,0,0,0,0,0,0,0,0,0,0,0,0,0,0,0,0,0,0,0,0,0,0,0,0,0,0,0,0,0,0,0,0,0,0,0,0,0,0,0,0,0,0,0,0,0,0,0,0,0,0,0,0,0,0,0,0,0,0,0,0,0,0,0,0],"id":10,"left_children":[1,5,3,19,7,9,15,23,11,37,39,33,13,41,-1,-1,17,59,43,21,45,-1,-1,27,25,-1,-1,31,29,85,47,-1,-1,35,-1,53,-1,-1,-1,71,-1,-1,-1,-1,-1,97,-1,49,-1,51,67,99,-1,55,57,-1,-1,-1,-1,-1,61,-1,63,65,-1,-1,-1,69,-1,-1,-1,73,77,83,75,-1,-1,79,81,-1,-1,-1,-1,-1,89,-1,87,-1,-1,-1,91,-1,93,95,-1,-1,-1,-1,-1,-1,-1],"loss_changes":[1.8863066E4,2.743414E3,3.8193267E3,3.651303E2,1.2263555E3,8.994131E2,3.7932288E2,3.637334E2,6.0583105E2,3.4836768E2,3.343672E2,3.5019385E2,3.8644492E2,3.1813522E2,0E0,0E0,3.690061E2,2.7622363E2,3.034128E2,3.9624243E2,2.9497308E2,0E0,0E0,3.8947217E2,4.1198425E2,0E0,0E0,3.5883203E2,4.0746326E2,2.60113E2,2.8252417E2,0E0,0E0,3.8359814E2,0E0,2.7792334E2,0E0,0E0,0E0,2.6829688E2,0E0,0E0,0E0,0E0,0E0,2.5301031E2,0E0,4.508601E2,0E0,4.6957504E2,2.6878125E2,2.5090173E2,0E0,3.500244E2,2.8505933E2,0E0,0E0,0E0,0E0,0E0,2.9576147E2,0E0,4.5866333E2,2.8828555E2,0E0,0E0,0E0,3.5274805E2,0E0,0E0,0E0,3.9404785E2,3.3312646E2,2.7743262E2,4.044524E2,0E0,0E0,3.6894357E2,2.7950153E2,0E0,0E0,0E0,0E0,0E0,2.5391357E2,0E0,2.763044E2,0E0,0E0,0E0,2.7083057E2,0E0,5.709861E2,2.619747E2,0E0,0E0,0E0,0E0,0E0,0E0,0E0],"parents":[2147483647,0,0,2,2,1,1,4,4,5,5,8,8,12,12,6,6,16,16,3,3,19,19,7,7,24,24,23,23,28,28,27,27,11,11,33,33,9,9,10,10,13,13,18,18,20,20,30,30,47,47,49,49,35,35,53,53,54,54,17,17,60,60,62,62,63,63,50,50,67,67,39,39,71,71,74,74,72,72,77,77,78,78,73,73,29,29,86,86,84,84,90,90,92,92,93,93,45,45,51,51],"right_children":[2,6,4,20,8,10,16,24,12,38,40,34,14,42,-1,-1,18,60,44,22,46,-1,-1,28,26,-1,-1,32,30,86,48,-1,-1,36,-1,54,-1,-1,-1,72,-1,-1,-1,-1,-1,98,-1,50,-1,52,68,100,-1,56,58,-1,-1,-1,-1,-1,62,-1,64,66,-1,-1,-1,70,-1,-1,-1,74,78,84,76,-1,-1,80,82,-1,-1,-1,-1,-1,90,-1,88,-1,-1,-1,92,-1,94,96,-1,-1,-1,-1,-1,-1,-1],"split_conditions":[-1.3070662E0,-4.3971524E0,3.2904286E0,2.1108248E0,1.0719032E1,-1.11159935E1,1.97918E0,9.902752E-1,1.829915E0,-5E-1,1.6E1,9.0570223E-1,2.1358992E1,2.3003232E0,-3.9370993E-1,3.46166E-1,1.4E1,-2.9904308E0,4E0,2E1,-1.0151944E0,9.787874E-3,8.4965624E-2,1.5317365E-2,3E0,-1.4252628E-1,3.7226182E-1,9.8379797E-1,-2.7948564E-1,-8.660254E-1,-2.1216958E0,1.2763916E-1,-1.56663E-2,8.135976E0,3.478903E-1,6.282827E0,7.299396E-1,1.5582734E-1,-2.4589898E-1,9.5910263E-1,-3.1724174E-2,4.9120378E-2,4.4287363E-1,-6.556196E-2,4.5406364E-2,-9.917227E-1,7.963852E-2,6.4994483E0,7.8811586E-2,7.927092E-1,9.793696E-1,4.4779544E0,-8.126211E-2,2.1275945E0,7.60383E0,3.0088222E-1,-1.5568495E-1,8.320581E-2,2.634828E-1,3.046451E-1,6.3724513E0,-7.321258E-2,2.5884008E0,9.706077E-1,-9.981134E-2,4.517726E-3,2.484325E-1,-5.9646974E0,6.974969E-1,-6.348172E-2,2.8953126E-1,8.977269E-1,4.7753587E-1,6.1559477E0,7.0045686E0,-2.5166395E-1,1.0673759E-1,9.706077E-1,2.629622E-1,3.804527E-1,-1.4662905E-1,5.121195E-2,5.400474E-1,7.593771E-2,-1.241944E0,-9.083082E-2,1E0,7.2504714E-2,-2.4119213E-2,1.8836531E-1,6.539247E-1,-1.4932197E-1,7.601721E-1,-7.663768E0,-1.22902304E-1,4.7266173E-1,2.1635372E-2,4.5452055E-1,-2.4678202E-2,3.6686206E-1,1.1609751E-1],"split_indices":[7,7,7,7,7,7,14,25,10,17,21,22,15,12,0,0,21,12,2,21,25,0,0,12,2,0,0,22,23,18,5,0,0,5,0,14,0,0,0,25,0,0,0,0,0,22,0,7,0,25,25,14,0,12,14,0,0,0,0,0,14,0,9,25,0,0,0,9,0,0,0,25,22,15,13,0,0,25,23,0,0,0,0,0,25,0,21,0,0,0,25,0,25,6,0,0,0,0,0,0,0],"split_type":[0,0,0,0,0,0,0,0,0,0,0,0,0,0,0,0,0,0,0,0,0,0,0,0,0,0,0,0,0,0,0,0,0,0,0,0,0,0,0,0,0,0,0,0,0,0,0,0,0,0,0,0,0,0,0,0,0,0,0,0,0,0,0,0,0,0,0,0,0,0,0,0,0,0,0,0,0,0,0,0,0,0,0,0,0,0,0,0,0,0,0,0,0,0,0,0,0,0,0,0,0],"sum_hessian":[7.8970854E3,3.198654E3,4.6984316E3,2.6835688E3,2.0148627E3,1.5360594E3,1.6625945E3,1.7391561E3,2.7570657E2,1.9906586E2,1.3369937E3,2.2570854E2,4.9998024E1,4.5799004E1,4.199022E0,5.8648176E0,1.6567296E3,1.400044E3,2.5668567E2,2.1523713E3,5.3119763E2,1.9683265E3,1.8404474E2,1.7133717E3,2.578444E1,4.526539E0,2.12579E1,8.4591E2,8.674617E2,4.5603726E2,4.114244E2,8.0164874E2,4.4261253E1,1.6726627E2,5.8442287E1,1.63946E2,3.3202543E0,5.324214E0,1.9374164E2,1.2480781E3,8.8915565E1,4.0185112E1,5.6138897E0,9.244186E1,1.6424382E2,1.04460785E2,4.2673685E2,1.4503677E2,2.6638763E2,8.439561E1,6.064117E1,5.8108746E1,2.6286863E1,6.929149E1,9.465452E1,6.499417E1,4.297317E0,6.303725E1,3.1617266E1,5.0111294E0,1.3950328E3,1.02936E3,3.6567285E2,2.443947E2,1.2127814E2,2.3214893E2,1.22457695E1,5.736734E1,3.2738314E0,7.8765373E0,4.94908E1,1.1837739E3,6.430417E1,1.075704E3,1.0807001E2,9.98927E1,8.177303E0,4.4851295E1,1.945287E1,3.4538198E0,4.1397476E1,1.6049746E1,3.4031243E0,1.6025259E1,1.0596787E3,3.306198E1,4.2297528E2,3.3263406E2,9.03412E1,6E0,1.0536787E3,6.8947815E2,3.6420053E2,5.4776836E1,3.0942368E2,3.2888346E0,5.1488E1,2.7153885E0,1.017454E2,1.2096648E1,4.60121E1],"tree_param":{"num_deleted":"0","num_feature":"27","num_nodes":"101","size_leaf_vector":"1"}},{"base_weights":[-8.582614E-3,-1.6919664E0,1.2519453E0,-2.3210351E0,-8.6982435E-1,2.2490318E0,8.7343353E-1,4.7815385E0,1.616717E0,3.9042872E-1,1.6670082E0,2.6795762E0,4.9016207E-1,3.0835733E0,-1.4863075E-1,-3.3159063E0,-1.7615181E0,1.584717E-1,-1.042332E0,-2.5496036E-1,2.4897978E0,-9.350114E-2,-5.3528464E-1,8.137449E-1,1.7757022E-1,-1.4430125E0,-3.094298E0,-1.7796834E-1,-2.1565459E0,-2.9506795E0,-8.858003E-1,-3.913988E0,-4.9492132E-2,1.118419E-1,-9.038054E-1,-1.1529696E-1,5.7337874E-1,3.3651707E0,-7.432674E-1,-5.7228003E-2,1.8050861E0,-1.0539695E0,2.3535278E-2,1.501677E-1,-6.2126096E-2,1.345262E-1,-1.7617438E0,-1.273007E-1,-5.0960076E-1,-6.2127504E-2,1.029305E0,-5.7262456E-1,6.217212E-1,2.1192987E0,2.3265843E-1,-9.829957E-2,4.3870202E-1,-8.568113E-2,2.109323E-2,6.73821E-3,1.8788451E-1,3.7904546E-2,2.1486239E-1,-1.8949762E-1,-3.8471676E-2,-2.9721946E-1,-3.0939314E0,-1.10077355E-2,2.503562E-1,1.4669374E-1,-3.289511E0,-6.8044744E-2,4.2929247E-1,-2.0846978E-1,-1.2125518E-1,-2.4676886E-1,6.020708E-2,5.3554643E-2,2.2618747E0,1.2748842E-1,1.7520985E-2,-1.7896497E-1,3.2364324E-2,2.8227955E-1,-2.1859705E-1,-2.5869566E-1,1.8838076E-1,-2.7855757E-1,-1.5400553E-1,1.6489264E-1,6.3088946E-2,9.810162E-2,-1.3753397E0,-8.705788E-2,1.8166713E-1,1.7150943E0,-3.5623208E-2,-2.6276449E-2,3.3590338E0,1.05604075E-1,3.8975838E-1],"categories":[],"categories_nodes":[],"categories_segments":[],"categories_sizes":[],"default_left":[0,0,0,0,0,0,0,0,0,0,0,0,0,0,0,0,0,0,0,0,0,0,0,0,0,0,0,0,0,0,0,0,0,0,0,0,0,0,0,0,0,0,0,0,0,0,0,0,0,0,0,0,0,0,0,0,0,0,0,0,0,0,0,0,0,0,0,0,0,0,0,0,0,0,0,0,0,0,0,0,0,0,0,0,0,0,0,0,0,0,0,0,0,0,0,0,0,0,0,0,0],"id":11,"left_children":[1,3,5,15,17,7,9,67,11,51,39,13,19,23,-1,65,25,-1,21,47,61,-1,41,45,-1,27,63,33,29,31,91,87,-1,-1,35,-1,37,83,81,-1,77,43,-1,-1,-1,-1,75,49,-1,-1,59,55,53,89,57,-1,95,-1,-1,-1,-1,-1,-1,-1,-1,-1,69,-1,-1,71,73,-1,-1,-1,-1,-1,-1,-1,79,-1,-1,-1,-1,-1,85,-1,-1,-1,-1,-1,-1,-1,93,-1,-1,97,-1,-1,99,-1,-1],"loss_changes":[1.6860418E4,1.7595625E3,1.7147588E3,1.0728906E3,1.0441566E3,2.0019888E3,1.2623254E3,4.1039062E2,1.1978645E3,4.560205E2,4.8777246E2,1.1881089E3,7.236151E2,5.899326E2,0E0,4.2354932E2,5.236697E2,0E0,6.214669E2,4.5826343E2,4.2888E2,0E0,4.7024442E2,4.60138E2,0E0,8.987527E2,4.2488867E2,6.4131335E2,6.424275E2,7.3236255E2,3.4614996E2,3.574336E2,0E0,0E0,5.9366296E2,0E0,5.0477676E2,3.779102E2,3.811231E2,0E0,3.8645874E2,5.208625E2,0E0,0E0,0E0,0E0,3.88184E2,4.6100604E2,0E0,0E0,4.3405835E2,5.7483044E2,9.6183655E2,3.5280237E2,5.1369104E2,0E0,3.4591452E2,0E0,0E0,0E0,0E0,0E0,0E0,0E0,0E0,0E0,4.0688818E2,0E0,0E0,4.8336456E2,4.761494E2,0E0,0E0,0E0,0E0,0E0,0E0,0E0,4.688413E2,0E0,0E0,0E0,0E0,0E0,3.626767E2,0E0,0E0,0E0,0E0,0E0,0E0,0E0,4.2725348E2,0E0,0E0,4.1072342E2,0E0,0E0,3.5480084E2,0E0,0E0],"parents":[2147483647,0,0,1,1,2,2,5,5,6,6,8,8,11,11,3,3,4,4,12,12,18,18,13,13,16,16,25,25,28,28,29,29,27,27,34,34,36,36,10,10,22,22,41,41,23,23,19,19,47,47,9,9,52,52,51,51,54,54,50,50,20,20,26,26,15,15,7,7,66,66,69,69,70,70,46,46,40,40,78,78,38,38,37,37,84,84,31,31,53,53,30,30,92,92,56,56,95,95,98,98],"right_children":[2,4,6,16,18,8,10,68,12,52,40,14,20,24,-1,66,26,-1,22,48,62,-1,42,46,-1,28,64,34,30,32,92,88,-1,-1,36,-1,38,84,82,-1,78,44,-1,-1,-1,-1,76,50,-1,-1,60,56,54,90,58,-1,96,-1,-1,-1,-1,-1,-1,-1,-1,-1,70,-1,-1,72,74,-1,-1,-1,-1,-1,-1,-1,80,-1,-1,-1,-1,-1,86,-1,-1,-1,-1,-1,-1,-1,94,-1,-1,98,-1,-1,100,-1,-1],"split_conditions":[-9.5137316E-1,1.4E1,8E0,-7.100434E0,-7.0710677E-1,-1.8369701E-16,3.2904286E0,2E0,3E0,1.4E1,1E1,6.405932E-1,6.3660946E0,-4.3711705E0,-1.4863075E-1,1E0,1.3E1,1.584717E-1,3.0649378E1,8.877306E0,9.741542E-1,-9.350114E-2,2E1,6.4716065E-1,1.7757022E-1,-5.140606E-1,3.2038536E1,-2.6973631E0,5.074151E-1,1E1,-1.0998214E0,-2.0507882E0,-4.9492132E-2,1.118419E-1,6E0,-1.1529696E-1,8E0,-2.8380156E0,1E1,-5.7228003E-2,-4.8505986E-1,1.6E1,2.3535278E-2,1.501677E-1,-6.2126096E-2,1.345262E-1,-3.9228487E0,1.2625249E-1,-5.0960076E-1,-6.2127504E-2,4.0830433E-1,-5.4391897E-1,1.6E1,-6.357424E-1,1.7E1,-9.829957E-2,1.2E1,-8.568113E-2,2.109323E-2,6.73821E-3,1.8788451E-1,3.7904546E-2,2.1486239E-1,-1.8949762E-1,-3.8471676E-2,-2.9721946E-1,-3.0939488E0,-1.10077355E-2,2.503562E-1,-7.862398E0,-1.3057764E0,-6.8044744E-2,4.2929247E-1,-2.0846978E-1,-1.2125518E-1,-2.4676886E-1,6.020708E-2,5.3554643E-2,9.387102E-1,1.2748842E-1,1.7520985E-2,-1.7896497E-1,3.2364324E-2,2.8227955E-1,-1.2823156E0,-2.5869566E-1,1.8838076E-1,-2.7855757E-1,-1.5400553E-1,1.6489264E-1,6.3088946E-2,9.810162E-2,9.5910263E-1,-8.705788E-2,1.8166713E-1,1E1,-3.5623208E-2,-2.6276449E-2,4.393995E-1,1.05604075E-1,3.8975838E-1],"split_indices":[7,0,0,7,18,18,7,2,0,0,0,23,7,9,0,0,0,0,24,14,26,0,0,22,0,6,24,9,22,0,25,26,0,0,0,0,0,6,0,0,23,0,0,0,0,0,8,25,0,0,23,23,0,25,0,0,0,0,0,0,0,0,0,0,0,0,10,0,0,7,5,0,0,0,0,0,0,0,22,0,0,0,0,0,5,0,0,0,0,0,0,0,25,0,0,0,0,0,23,0,0],"split_type":[0,0,0,0,0,0,0,0,0,0,0,0,0,0,0,0,0,0,0,0,0,0,0,0,0,0,0,0,0,0,0,0,0,0,0,0,0,0,0,0,0,0,0,0,0,0,0,0,0,0,0,0,0,0,0,0,0,0,0,0,0,0,0,0,0,0,0,0,0,0,0,0,0,0,0,0,0,0,0,0,0,0,0,0,0,0,0,0,0,0,0,0,0,0,0,0,0,0,0,0,0],"sum_hessian":[7.94571E3,3.4022043E3,4.5435054E3,1.9274214E3,1.474783E3,1.2501974E3,3.293308E3,2.4978247E2,1.0004149E3,2.0472572E3,1.246051E3,5.1475946E2,4.8565546E2,4.807629E2,3.399657E1,6.9379333E2,1.233628E3,5.9487362E1,1.4152957E3,3.5381403E2,1.3184142E2,5.226446E2,8.92651E2,9.247807E1,3.8828485E2,9.9568225E2,2.3794582E2,3.590727E2,6.3660956E2,3.9177493E2,2.4483463E2,2.6180975E2,1.2996518E2,8.179167E1,2.7728104E2,1.3995749E2,1.3732355E2,4.4008575E1,9.331498E1,5.786938E1,1.1881816E3,5.9088605E2,3.0176492E2,2.9185345E1,5.6170074E2,5.284124E1,3.9636833E1,3.494178E2,4.396244E0,1.7591783E2,1.7349994E2,3.9646365E2,1.6507936E3,3.4042606E2,1.3103676E3,1.6399092E2,2.3247273E2,1.1896613E2,1.1914014E3,1.3165097E2,4.1848976E1,6.919422E1,6.2647198E1,1.782497E2,5.969612E1,5.181326E1,6.4198004E2,1.5367335E1,2.3441513E2,3.653963E1,6.054404E2,3.1012398E1,5.527232E0,2.771064E2,3.2833398E2,1.8919415E1,2.0717419E1,4.6435068E2,7.2383093E2,6.141338E2,1.0969712E2,3.0371258E1,6.294372E1,2.6374544E1,1.7634031E1,7.852768E0,9.781262E0,7.938022E1,1.8242953E2,1.3625934E2,2.0416672E2,3.548563E1,2.09349E2,1.9402403E2,1.5324965E1,1.1097113E2,1.215016E2,4.683289E1,6.4138245E1,5.0826927E1,1.3311318E1],"tree_param":{"num_deleted":"0","num_feature":"27","num_nodes":"101","size_leaf_vector":"1"}},{"base_weights":[-3.9238345E-2,-1.0664371E0,1.1696406E-1,-1.4290404E0,1.1959323E0,1.793742E0,-2.0657341E0,5.583312E-1,2.1842577E0,3.1949258E-1,3.8400027E-1,-2.2828927E0,-7.3619914E-1,1.8516219E0,-1.0029945E0,3.0149188E0,7.2454914E-2,-4.022606E-1,-9.689491E-2,-2.0499192E-1,-1.9495684E0,-8.195424E-1,1.676042E-1,-9.7406304E-1,-2.944767E0,-1.8076622E-1,-4.7433563E-2,3.5079528E-2,-1.7347999E-1,1.7733486E-2,-2.2976513E0,-3.0572605E0,-1.4578049E0,-3.5442257E0,2.0626168E-1,-1.9246625E0,6.2597084E-1,-3.28646E-1,-1.6996076E0,-5.618417E-1,-2.77163E0,8.6669505E-2,4.6402943E-1,7.543485E-2,-7.211251E-1,-1.7237833E0,5.289926E-2,-2.7316096E-1,-8.755609E-1,-2.0155887E-1,3.1346645E-2,3.518976E0,7.909272E-2,-1.3881842E-2,-1.9835207E-1,-1.2656324E0,1.852564E-2,-1.674447E-1,-2.4181949E-2,1.6224763E-1,3.6504257E-1,1.2721E-1,-1.237601E0,8.0275685E-2,-1.4765862E-1,1.3372151E0,3.4434673E-1,-1.4854928E0,7.994601E-2,-1.35383E-1,2.558578E-1,-7.610441E-2,2.590705E0,5.7173556E-1,-2.3701152E-2,-1.1457204E-1,8.4719104E-1,2.0207295E0,4.642263E-1,2.9390132E-1,6.8203814E-2,-1.3018609E0,8.333542E-1,-1.0041351E-1,1.01632856E-1,1.5649252E0,2.553402E-1,2.3710064E-3,2.532393E-1,-8.1379235E-2,2.4042333E-2,-5.3625274E-2,-1.9357422E-1,6.479446E0,6.764548E-2,1.4148626E-1,8.642562E-1,2.642763E-1,1.5747197E0,3.3030874E-1,4.0864736E-2],"categories":[],"categories_nodes":[],"categories_segments":[],"categories_sizes":[],"default_left":[0,0,0,0,0,0,0,0,0,0,0,0,0,0,0,0,0,0,0,0,0,0,0,0,0,0,0,0,0,0,0,0,0,0,0,0,0,0,0,0,0,0,0,0,0,0,0,0,0,0,0,0,0,0,0,0,0,0,0,0,0,0,0,0,0,0,0,0,0,0,0,0,0,0,0,0,0,0,0,0,0,0,0,0,0,0,0,0,0,0,0,0,0,0,0,0,0,0,0,0,0],"id":12,"left_children":[1,5,3,11,7,9,23,65,15,-1,21,19,13,71,17,51,-1,43,-1,-1,31,27,-1,29,25,-1,-1,-1,-1,-1,91,33,35,53,-1,37,41,-1,39,45,57,61,-1,-1,55,47,-1,-1,49,-1,-1,59,-1,-1,-1,89,-1,-1,-1,-1,-1,-1,63,-1,-1,67,73,69,-1,-1,-1,-1,97,75,-1,-1,77,79,81,-1,-1,83,85,-1,-1,93,87,-1,-1,-1,-1,-1,-1,95,-1,-1,-1,-1,99,-1,-1],"loss_changes":[1.2680541E3,2.9815308E3,1.1442932E4,1.6680835E3,2.5459663E3,1.7998911E3,7.418423E2,4.0931458E2,9.2843164E2,0E0,7.603994E2,8.003286E2,1.0747144E3,3.6610867E2,8.261924E2,5.1369727E2,0E0,5.40568E2,0E0,0E0,5.853816E2,6.225702E2,0E0,6.0976276E2,6.3032227E2,0E0,0E0,0E0,0E0,0E0,3.4453412E2,1.1692434E3,7.240171E2,5.0902466E2,0E0,6.5447925E2,6.497789E2,0E0,7.082772E2,5.3731506E2,4.3992017E2,4.267165E2,0E0,0E0,4.4883545E2,5.3885986E2,0E0,0E0,6.633259E2,0E0,0E0,4.3654297E2,0E0,0E0,0E0,3.4816833E2,0E0,0E0,0E0,0E0,0E0,0E0,4.2931256E2,0E0,0E0,4.3994684E2,3.6276672E2,4.2849673E2,0E0,0E0,0E0,0E0,3.404256E2,1.2116458E3,0E0,0E0,6.2056903E2,8.49615E2,6.7869E2,0E0,0E0,4.5424448E2,3.6412207E2,0E0,0E0,3.4422223E2,4.891067E2,0E0,0E0,0E0,0E0,0E0,0E0,5.5060315E2,0E0,0E0,0E0,0E0,3.357588E2,0E0,0E0],"parents":[2147483647,0,0,2,2,1,1,4,4,5,5,3,3,12,12,8,8,14,14,11,11,10,10,6,6,24,24,21,21,23,23,20,20,31,31,32,32,35,35,38,38,36,36,17,17,39,39,45,45,48,48,15,15,33,33,44,44,40,40,51,51,41,41,62,62,7,7,65,65,67,67,13,13,66,66,73,73,76,76,77,77,78,78,81,81,82,82,86,86,55,55,30,30,85,85,93,93,72,72,98,98],"right_children":[2,6,4,12,8,10,24,66,16,-1,22,20,14,72,18,52,-1,44,-1,-1,32,28,-1,30,26,-1,-1,-1,-1,-1,92,34,36,54,-1,38,42,-1,40,46,58,62,-1,-1,56,48,-1,-1,50,-1,-1,60,-1,-1,-1,90,-1,-1,-1,-1,-1,-1,64,-1,-1,68,74,70,-1,-1,-1,-1,98,76,-1,-1,78,80,82,-1,-1,84,86,-1,-1,94,88,-1,-1,-1,-1,-1,-1,96,-1,-1,-1,-1,100,-1,-1],"split_conditions":[-8.660254E-1,1.2E1,-8.811214E-1,1E1,4.029394E0,3.053725E1,1.3E1,-5E-1,8E0,3.1949258E-1,7.650753E-1,-1.11159935E1,1.5E1,-8.7448096E-1,1.7928076E-1,2.3897667E0,7.2454914E-2,-6.1618485E0,-9.689491E-2,-2.0499192E-1,-4.7753587E-1,4.4709378E-1,1.676042E-1,3.1372643E1,3.2038536E1,-1.8076622E-1,-4.7433563E-2,3.5079528E-2,-1.7347999E-1,1.7733486E-2,4E0,1E0,2E0,1E0,2.0626168E-1,-7.818315E-1,1.9569231E0,-3.28646E-1,5E0,2E0,4E0,-1.9576356E0,4.6402943E-1,7.543485E-2,-7.0710677E-1,-6.7549148E0,5.289926E-2,-2.7316096E-1,-7.946578E-1,-2.0155887E-1,3.1346645E-2,2.0201492E0,7.909272E-2,-1.3881842E-2,-1.9835207E-1,1.7E1,1.852564E-2,-1.674447E-1,-2.4181949E-2,1.6224763E-1,3.6504257E-1,1.2721E-1,6E0,8.0275685E-2,-1.4765862E-1,1E1,8.5731465E-1,9.867306E-1,7.994601E-2,-1.35383E-1,2.558578E-1,-7.610441E-2,2E0,-2.5881904E-1,-2.3701152E-2,-1.1457204E-1,6.123234E-17,8E0,5E-1,2.9390132E-1,6.8203814E-2,8.049617E-1,-4.6749878E-1,-1.0041351E-1,1.01632856E-1,-2.994037E0,2.3E1,2.3710064E-3,2.532393E-1,-8.1379235E-2,2.4042333E-2,-5.3625274E-2,-1.9357422E-1,2.3700738E0,6.764548E-2,1.4148626E-1,8.642562E-1,2.642763E-1,-3.6444008E0,3.3030874E-1,4.0864736E-2],"split_indices":[18,0,7,0,7,24,0,18,0,0,25,7,0,22,23,6,0,8,0,0,22,22,0,24,24,0,0,0,0,0,1,17,21,1,0,19,26,0,0,0,1,6,0,0,17,6,0,0,23,0,0,26,0,0,0,21,0,0,0,0,0,0,0,0,0,0,22,22,0,0,0,0,1,18,0,0,18,0,18,0,0,23,25,0,0,26,21,0,0,0,0,0,0,9,0,0,0,0,9,0,0],"split_type":[0,0,0,0,0,0,0,0,0,0,0,0,0,0,0,0,0,0,0,0,0,0,0,0,0,0,0,0,0,0,0,0,0,0,0,0,0,0,0,0,0,0,0,0,0,0,0,0,0,0,0,0,0,0,0,0,0,0,0,0,0,0,0,0,0,0,0,0,0,0,0,0,0,0,0,0,0,0,0,0,0,0,0,0,0,0,0,0,0,0,0,0,0,0,0,0,0,0,0,0,0],"sum_hessian":[7.9030625E3,1.0431606E3,6.859902E3,2.8196924E3,4.0402095E3,2.7009543E2,7.7306525E2,2.4558567E3,1.5843527E3,6.2046E1,2.0804942E2,1.2630806E3,1.5566118E3,1.4548228E2,1.4111295E3,7.2761255E2,8.567401E2,8.730181E2,5.381113E2,1.8843379E2,1.0746467E3,1.4899808E2,5.9051342E1,3.4482626E2,4.2823898E2,3.1105765E2,1.1718132E2,9.52499E1,5.3748184E1,1.716084E2,1.7321786E2,3.3040677E2,7.4424E2,3.0965677E2,2.075E1,6.080175E2,1.3622246E2,2.732335E1,5.8069415E2,2.817093E2,2.9898486E2,1.2839404E2,7.828414E0,1.2313407E2,7.4988403E2,1.6494975E2,1.16759544E2,2.9771122E1,1.3517863E2,4.3092216E1,9.208641E1,5.350585E2,1.925541E2,4.1460926E1,2.6819583E2,5.0147644E2,2.4840761E2,2.3294058E2,6.604429E1,5.082312E2,2.6827238E1,4.434832E1,8.404572E1,3.2087025E1,5.19587E1,5.292893E2,1.9265675E3,5E1,4.7928928E2,4.2E1,8E0,2.5946749E1,1.1953553E2,1.5115121E3,4.150554E2,1.3069913E2,1.380813E3,3.397371E2,1.0410758E3,4.636795E1,2.9336914E2,1.7997693E2,8.6109894E2,1.4735039E2,3.262655E1,3.8006436E2,4.8103458E2,4.6159232E2,1.9442247E1,4.0934415E2,9.2132286E1,1.00253975E2,7.296389E1,1.3736745E1,3.663276E2,1.0392348E1,3.3443964E0,3.1799244E1,8.773629E1,1.1E1,7.673629E1],"tree_param":{"num_deleted":"0","num_feature":"27","num_nodes":"101","size_leaf_vector":"1"}},{"base_weights":[2.2235287E-2,-1.5132604E0,1.1772056E0,6.6972786E-1,2.4394286E0,-2.324318E0,-6.944533E-1,-4.230766E0,-2.068398E0,2.6389232E-1,1.2657454E0,3.5100067E0,2.0992544E0,1.6676533E0,3.497704E0,1.1246811E-1,4.9637723E0,-1.1315691E0,4.2865315E-1,4.447229E0,1.6660293E0,1.3376711E-1,6.1503158E0,-2.218768E0,-2.1563996E-2,-2.3494337E0,-1.4293674E-1,-6.55803E-1,5.857378E-1,2.41223E-1,-2.9976593E-2,1.3742177E0,2.043976E-1,2.4330318E-2,-1.08922414E-1,1.458104E0,-1.3747007E-1,-1.507113E-1,-2.768057E-1,1.9075093E0,8.3480513E-1,-1.7930709E-1,5.0280612E-2,-5.922219E-2,3.6570114E-1,5.1106286E-1,-7.5249866E-2,1.3954842E0,1.9763775E-1,3.3285445E-1,-1.9945733E-1,1.3652505E-1,1.65944E-2,1.4169082E-1,1.4472821E-1,2.2755543E-2,1.8500675E-1,1.8949622E-1,-9.2478454E-2,-3.9125233E0,3.6167179E-3,-6.1550397E-1,-1.3151357E-1,-1.6023697E-2,5.115436E-1,3.2090378E-1,-7.198868E-1,2.1459539E-1,1.2350904E-2,8.228843E-2,-1.6361009E0,-3.1795865E-1,2.1751538E-2,1.2660463E0,2.6128986E0,7.677247E-2,-7.7850886E-2,2.9859395E0,5.091323E-3,9.4843614E-1,1.0832514E-1,-2.0062195E-1,5.8998816E-2,2.9878253E-1,-2.3758118E0,-1.1262119E0,3.4685305E-1,-2.0956478E-1,6.832675E-3,1.2209984E-2,-2.4558532E0,3.2276452E-1,-1.5893828E-2,-1.1531108E-1,-4.4718084E0,-4.4882885E-1,-1.5273932E-1,4.6040317E-1,1.3952777E-1,-4.170375E-2,1.8723134E-2],"categories":[],"categories_nodes":[],"categories_segments":[],"categories_sizes":[],"default_left":[0,0,0,0,0,0,0,0,0,0,0,0,0,0,0,0,0,0,0,0,0,0,0,0,0,0,0,0,0,0,0,0,0,0,0,0,0,0,0,0,0,0,0,0,0,0,0,0,0,0,0,0,0,0,0,0,0,0,0,0,0,0,0,0,0,0,0,0,0,0,0,0,0,0,0,0,0,0,0,0,0,0,0,0,0,0,0,0,0,0,0,0,0,0,0,0,0,0,0,0,0],"id":13,"left_children":[1,5,3,9,11,7,65,37,23,17,35,15,13,79,19,-1,21,33,31,29,67,-1,91,25,-1,83,27,85,-1,-1,-1,69,43,-1,-1,39,63,-1,-1,73,41,-1,-1,-1,45,47,-1,51,49,53,-1,-1,-1,55,-1,57,-1,-1,59,61,-1,-1,-1,-1,-1,-1,99,-1,-1,-1,71,-1,-1,75,77,-1,-1,97,-1,81,-1,-1,-1,-1,89,87,-1,-1,-1,-1,93,-1,-1,-1,95,-1,-1,-1,-1,-1,-1],"loss_changes":[1.39170205E4,2.237191E3,2.8688032E3,7.726682E2,4.6771436E2,8.25709E2,3.0885602E2,3.2815527E2,3.653286E2,4.369292E2,3.492744E2,5.467905E2,5.882466E2,2.9098438E2,3.9976245E2,0E0,3.7357178E2,3.5664206E2,3.6041638E2,3.6461084E2,3.011211E2,0E0,2.606211E2,3.7049902E2,0E0,2.8635156E2,5.0188153E2,2.8235822E2,0E0,0E0,0E0,2.9943286E2,3.13158E2,0E0,0E0,3.1876465E2,3.1281985E2,0E0,0E0,2.9919263E2,4.1015112E2,0E0,0E0,0E0,3.4084378E2,3.1754205E2,0E0,4.406037E2,4.8817435E2,4.107698E2,0E0,0E0,0E0,3.3027512E2,0E0,3.2781277E2,0E0,0E0,4.5634177E2,3.1838907E2,0E0,0E0,0E0,0E0,0E0,0E0,2.4167786E2,0E0,0E0,0E0,3.0286316E2,0E0,0E0,2.9746783E2,2.947522E2,0E0,0E0,2.4289014E2,0E0,4.1329123E2,0E0,0E0,0E0,0E0,2.6916455E2,2.9173776E2,0E0,0E0,0E0,0E0,2.565581E2,0E0,0E0,0E0,3.8151514E2,0E0,0E0,0E0,0E0,0E0,0E0],"parents":[2147483647,0,0,2,2,1,1,5,5,3,3,4,4,12,12,11,11,9,9,14,14,16,16,8,8,23,23,26,26,19,19,18,18,17,17,10,10,7,7,35,35,40,40,32,32,44,44,45,45,48,48,47,47,49,49,53,53,55,55,58,58,59,59,36,36,6,6,20,20,31,31,70,70,39,39,73,73,74,74,13,13,79,79,25,25,27,27,85,85,84,84,22,22,90,90,94,94,77,77,66,66],"right_children":[2,6,4,10,12,8,66,38,24,18,36,16,14,80,20,-1,22,34,32,30,68,-1,92,26,-1,84,28,86,-1,-1,-1,70,44,-1,-1,40,64,-1,-1,74,42,-1,-1,-1,46,48,-1,52,50,54,-1,-1,-1,56,-1,58,-1,-1,60,62,-1,-1,-1,-1,-1,-1,100,-1,-1,-1,72,-1,-1,76,78,-1,-1,98,-1,82,-1,-1,-1,-1,90,88,-1,-1,-1,-1,94,-1,-1,-1,96,-1,-1,-1,-1,-1,-1],"split_conditions":[-9.793584E-1,-4.0129213E0,5.2510376E0,2.0931304E0,-4.06163E0,-1.11159935E1,1.97918E0,6.004896E-2,1.4E1,-8.660254E-1,9.2632395E-1,2.5881904E-1,9.659258E-1,0E0,2.8260842E-1,1.1246811E-1,1.0898805E1,6.8757616E-2,-5E-1,2.5881904E-1,-5.294339E-1,1.3376711E-1,9.955458E-1,9.5910263E-1,-2.1563996E-2,-1.241944E0,-7.614033E0,7.555857E0,5.857378E-1,2.41223E-1,-2.9976593E-2,7.0710677E-1,-2.5881904E-1,2.4330318E-2,-1.08922414E-1,1.6E1,4.1483183E0,-1.507113E-1,-2.768057E-1,-1.0896664E1,-2.5881904E-1,-1.7930709E-1,5.0280612E-2,-5.922219E-2,1.8057146E0,2.5881904E-1,-7.5249866E-2,-6.221855E-1,9.659258E-1,1.3891943E0,-1.9945733E-1,1.3652505E-1,1.65944E-2,1E0,1.4472821E-1,-2.8940907E0,1.8500675E-1,1.8949622E-1,2E0,-5.0436454E0,3.6167179E-3,-6.1550397E-1,-1.3151357E-1,-1.6023697E-2,5.115436E-1,3.2090378E-1,1.7E1,2.1459539E-1,1.2350904E-2,8.228843E-2,-6.536805E-1,-3.1795865E-1,2.1751538E-2,7.279996E0,1.4432856E0,7.677247E-2,-7.7850886E-2,-3.7402523E0,5.091323E-3,-1.2109513E0,1.0832514E-1,-2.0062195E-1,5.8998816E-2,2.9878253E-1,-3.839473E0,-7.9983926E-1,3.4685305E-1,-2.0956478E-1,6.832675E-3,1.2209984E-2,1E1,3.2276452E-1,-1.5893828E-2,-1.1531108E-1,-1.6228577E0,-4.4882885E-1,-1.5273932E-1,4.6040317E-1,1.3952777E-1,-4.170375E-2,1.8723134E-2],"split_indices":[7,7,7,7,5,7,14,23,21,18,22,17,17,19,8,0,15,25,18,18,23,0,22,25,0,25,16,5,0,0,0,17,18,0,0,0,11,0,0,16,18,0,0,0,26,18,0,26,17,26,0,0,0,18,0,11,0,0,0,5,0,0,0,0,0,0,21,0,0,0,23,0,0,8,12,0,0,10,0,12,0,0,0,0,10,22,0,0,0,0,2,0,0,0,11,0,0,0,0,0,0],"split_type":[0,0,0,0,0,0,0,0,0,0,0,0,0,0,0,0,0,0,0,0,0,0,0,0,0,0,0,0,0,0,0,0,0,0,0,0,0,0,0,0,0,0,0,0,0,0,0,0,0,0,0,0,0,0,0,0,0,0,0,0,0,0,0,0,0,0,0,0,0,0,0,0,0,0,0,0,0,0,0,0,0,0,0,0,0,0,0,0,0,0,0,0,0,0,0,0,0,0,0,0,0],"sum_hessian":[7.847419E3,3.3687605E3,4.4786587E3,3.194363E3,1.2842955E3,1.6923884E3,1.676372E3,2.0029648E2,1.492092E3,1.9003756E3,1.2939875E3,3.096809E2,9.746146E2,7.447611E2,2.2985349E2,1.6872232E2,1.4095859E2,2.0068091E2,1.6996947E3,1.5137923E2,7.847426E1,4.890274E1,9.205585E1,1.365948E3,1.26144E2,1.2850581E3,8.088987E1,7.7600365E1,3.2895107E0,1.3835878E2,1.3020451E1,3.2583237E2,1.3738623E3,8.054178E1,1.2013913E2,1.1379877E3,1.5599982E2,1.1042284E2,8.9873634E1,6.612315E2,4.767562E2,1.9474913E1,4.5728128E2,1.407558E2,1.2331064E3,1.1455371E3,8.756938E1,2.9973743E2,8.457997E2,8.198297E2,2.5969927E1,1.29408E2,1.7032942E2,7.6410065E2,5.572907E1,7.398874E2,2.4213278E1,2.1529902E1,7.183575E2,2.9967066E1,6.8839044E2,3.7261221E0,2.6240944E1,1.5325357E2,2.7462435E0,5.8648176E0,1.6705072E3,2.6880714E1,5.1593548E1,2.9583237E2,3E1,9E0,2.1E1,3.4630853E2,3.1492294E2,3.1329288E2,3.301566E1,2.741601E2,4.0762856E1,3.2047546E2,4.2428564E2,1.5465833E1,3.0500964E2,4E0,1.2810581E3,7.315184E1,4.4485235E0,2.0962912E1,5.2188927E1,3.7905823E1,1.2431523E3,8.623242E1,5.823422E0,1.1830745E3,6.00779E1,1.3464671E1,4.6613228E1,5.785119E0,2.6837497E2,1.4926893E3,1.778178E2],"tree_param":{"num_deleted":"0","num_feature":"27","num_nodes":"101","size_leaf_vector":"1"}},{"base_weights":[-8.547348E-3,-1.5472763E0,1.0378661E0,3.6804095E-1,1.9295008E0,-2.282051E0,-8.3805937E-1,2.7661889E0,1.3510412E0,2.268929E0,4.4216113E0,3.2192209E0,1.0398225E0,-8.606909E-3,1.4336723E-1,-5.612485E0,-2.1625855E0,3.5237956E0,-1.00458264E-1,-2.774033E0,-1.7122029E0,-3.4712985E0,-8.660766E-2,-3.8740761E0,-1.0147008E-1,-2.0987897E-1,1.1282734E-1,1.8076345E-1,3.5500908E-1,-1.3750796E0,1.4697608E0,-2.1776748E-1,5.4590616E-2,-9.3400323E-1,6.554036E-2,-8.394567E-2,-3.460033E-1,3.267029E-1,1.5200016E-1,3.3942334E-2,7.7250403E-1,1.697402E-1,-1.6740187E0,5.2863464E-2,-1.6838124E-2,1.9332682E-1,5.5465894E-3,3.286943E0,7.2630754E0,3.7542124E0,3.8543496E-1,5.2957445E-1,7.6908164E-2,6.063704E-2,4.337875E0,1.7943521E-1,3.6027092E-1,-8.888839E-2,1.9918525E-1,-1.866495E-2,-1.2766817E0,-6.5827067E-3,-1.5634196E0,-1.75605E0,7.702698E-2,-9.575673E-2,3.5291854E-1,-6.1997765E-1,-9.883821E-2,-1.316004E-1,1.9260135E-2,1.522676E-1,1.316226E0,2.008431E0,7.810414E-1,3.1511512E0,6.262226E-2,5.941505E-1,4.7225957E0,1.3441785E-1,3.2354409E-1,1.5990362E0,1.5293835E-3,3.9354699E0,9.0386087E-1,-5.332994E-3,2.637304E-1,-4.0256457E0,5.8207143E-2,-4.494344E-2,1.5151317E-1,-3.7108371E0,-3.1760895E-1,-1.3678663E0,-2.0367898E-1,-2.6925644E-1,2.42018E-3,-1.6428353E-1,-7.565512E-2,5.1346485E-2,-3.3165285E-1],"categories":[],"categories_nodes":[],"categories_segments":[],"categories_sizes":[],"default_left":[0,0,0,0,0,0,0,0,0,0,0,0,0,0,0,0,0,0,0,0,0,0,0,0,0,0,0,0,0,0,0,0,0,0,0,0,0,0,0,0,0,0,0,0,0,0,0,0,0,0,0,0,0,0,0,0,0,0,0,0,0,0,0,0,0,0,0,0,0,0,0,0,0,0,0,0,0,0,0,0,0,0,0,0,0,0,0,0,0,0,0,0,0,0,0,0,0,0,0,0,0],"id":14,"left_children":[1,5,3,37,7,15,33,9,29,11,27,17,13,-1,-1,35,19,47,-1,21,67,23,-1,87,25,-1,-1,-1,-1,31,71,-1,-1,59,-1,-1,-1,39,-1,41,43,45,65,-1,-1,-1,-1,49,51,53,57,-1,-1,-1,55,-1,-1,-1,-1,-1,61,-1,63,97,-1,-1,-1,69,-1,-1,-1,-1,73,75,81,77,-1,89,79,-1,-1,83,-1,85,99,-1,-1,91,-1,-1,-1,93,-1,95,-1,-1,-1,-1,-1,-1,-1],"loss_changes":[1.2707051E4,1.6646816E3,2.8054673E3,3.0317953E2,9.7526514E2,6.2424023E2,3.393203E2,6.780283E2,3.8558276E2,7.3983203E2,3.934497E2,5.7333716E2,6.3323737E2,0E0,0E0,3.0703857E2,4.17104E2,2.9908154E2,0E0,4.508081E2,2.9061523E2,5.150952E2,0E0,2.600923E2,4.0740344E2,0E0,0E0,0E0,0E0,3.7988998E2,2.8711206E2,0E0,0E0,2.9505347E2,0E0,0E0,0E0,3.4486554E2,0E0,3.699315E2,3.582478E2,3.1541107E2,2.9236392E2,0E0,0E0,0E0,0E0,4.3058032E2,4.0605212E2,4.0178296E2,3.5657718E2,0E0,0E0,0E0,4.5232227E2,0E0,0E0,0E0,0E0,0E0,3.1485596E2,0E0,4.6409912E2,2.4500952E2,0E0,0E0,0E0,3.9855408E2,0E0,0E0,0E0,0E0,3.8668933E2,3.7983667E2,3.6106808E2,7.130829E2,0E0,2.5506354E2,4.0915503E2,0E0,0E0,4.5728552E2,0E0,3.778725E2,2.3992657E2,0E0,0E0,2.545376E2,0E0,0E0,0E0,3.0500977E2,0E0,2.730434E2,0E0,0E0,0E0,0E0,0E0,0E0,0E0],"parents":[2147483647,0,0,2,2,1,1,4,4,7,7,9,9,12,12,5,5,11,11,16,16,19,19,21,21,24,24,10,10,8,8,29,29,6,6,15,15,3,3,37,37,39,39,40,40,41,41,17,17,47,47,48,48,49,49,54,54,50,50,33,33,60,60,62,62,42,42,20,20,67,67,30,30,72,72,73,73,75,75,78,78,74,74,81,81,83,83,23,23,77,77,87,87,91,91,93,93,63,63,84,84],"right_children":[2,6,4,38,8,16,34,10,30,12,28,18,14,-1,-1,36,20,48,-1,22,68,24,-1,88,26,-1,-1,-1,-1,32,72,-1,-1,60,-1,-1,-1,40,-1,42,44,46,66,-1,-1,-1,-1,50,52,54,58,-1,-1,-1,56,-1,-1,-1,-1,-1,62,-1,64,98,-1,-1,-1,70,-1,-1,-1,-1,74,76,82,78,-1,90,80,-1,-1,84,-1,86,100,-1,-1,92,-1,-1,-1,94,-1,96,-1,-1,-1,-1,-1,-1,-1],"split_conditions":[-1.3464425E0,-4.3971524E0,3.2904286E0,1.5461296E1,8E0,1E0,2.3E1,7E0,1E1,3E0,9.2632395E-1,3.4470737E-1,9.741542E-1,-8.606909E-3,1.4336723E-1,5.074151E-1,-1.1478549E0,1.6738465E0,-1.00458264E-1,9E0,-8.04868E-1,9.5910263E-1,-8.660766E-2,6.105153E0,-1.5715957E0,-2.0987897E-1,1.1282734E-1,1.8076345E-1,3.5500908E-1,7.3388535E-1,-7.818315E-1,-2.1776748E-1,5.4590616E-2,-1.7122381E0,6.554036E-2,-8.394567E-2,-3.460033E-1,1.2153052E0,1.5200016E-1,8.9851624E-1,8.3913773E-1,-1.882535E1,1.0568535E1,5.2863464E-2,-1.6838124E-2,1.9332682E-1,5.5465894E-3,6E0,9.085454E0,-3.5971045E0,-5.137254E-1,5.2957445E-1,7.6908164E-2,6.063704E-2,1.1370636E0,1.7943521E-1,3.6027092E-1,-8.888839E-2,1.9918525E-1,-1.866495E-2,-7.0710677E-1,-6.5827067E-3,-6.6157937E0,-5E-1,7.702698E-2,-9.575673E-2,3.5291854E-1,-2.2154424E0,-9.883821E-2,-1.316004E-1,1.9260135E-2,1.522676E-1,-5.968893E-1,1.6E1,-7.038257E-1,1.4E1,6.262226E-2,5.4391897E-1,4.3388373E-1,1.3441785E-1,3.2354409E-1,1.2E1,1.5293835E-3,1.9614254E-1,2.1782475E0,-5.332994E-3,2.637304E-1,6E0,5.8207143E-2,-4.494344E-2,1.5151317E-1,-4.488966E0,-3.1760895E-1,5.9468517E0,-2.0367898E-1,-2.6925644E-1,2.42018E-3,-1.6428353E-1,-7.565512E-2,5.1346485E-2,-3.3165285E-1],"split_indices":[7,7,7,5,0,0,0,0,0,0,22,23,26,0,0,22,5,26,0,0,10,25,0,8,26,0,0,0,0,22,19,0,0,8,0,0,0,7,0,25,22,16,6,0,0,0,0,1,14,9,10,0,0,0,11,0,0,0,0,0,18,0,16,18,0,0,0,8,0,0,0,0,25,0,5,0,0,23,19,0,0,0,0,23,26,0,0,1,0,0,0,8,0,14,0,0,0,0,0,0,0],"split_type":[0,0,0,0,0,0,0,0,0,0,0,0,0,0,0,0,0,0,0,0,0,0,0,0,0,0,0,0,0,0,0,0,0,0,0,0,0,0,0,0,0,0,0,0,0,0,0,0,0,0,0,0,0,0,0,0,0,0,0,0,0,0,0,0,0,0,0,0,0,0,0,0,0,0,0,0,0,0,0,0,0,0,0,0,0,0,0,0,0,0,0,0,0,0,0,0,0,0,0,0,0],"sum_hessian":[7.8918584E3,3.194465E3,4.6973936E3,2.682336E3,2.0150575E3,1.5689617E3,1.6255034E3,8.236799E2,1.1913776E3,6.334142E2,1.9026569E2,3.5722363E2,2.7619055E2,1.6795985E2,1.0823069E2,5.433067E1,1.514631E3,3.377048E2,1.951883E1,6.424403E2,8.7219073E2,3.7950363E2,2.6293668E2,3.3898624E2,4.051738E1,1.4790249E1,2.572713E1,1.510898E2,3.9175888E1,4.9717793E1,1.1416598E3,2.2264004E1,2.7453789E1,1.5568507E3,6.86527E1,1.4723071E1,3.96076E1,2.6423872E3,3.9948704E1,1.5949646E3,1.0474227E3,1.4774915E3,1.1747306E2,8.218061E2,2.2561661E2,2.1794573E1,1.4556969E3,3.1758868E2,2.011612E1,2.7353705E2,4.405163E1,1.2396295E1,7.7198257E0,5.1496616E1,2.2204045E2,1.8139485E2,4.0645596E1,2.7571175E1,1.6480453E1,5.956012E2,9.612495E2,1.9287206E2,7.6837744E2,7.239047E2,4.4472702E1,1.13876755E2,3.596309E0,1.9042397E2,6.817668E2,6.2653854E1,1.277701E2,9.784008E1,1.0438197E3,4.5514108E2,5.886786E2,1.7746445E2,2.776766E2,6.7549995E1,1.0991446E2,5.355854E1,5.635592E1,2.8154123E2,3.071374E2,6.455957E1,2.1698164E2,1.7013803E1,4.7545765E1,3.2913144E2,9.854796E0,4.2086964E1,2.5463032E1,2.917469E2,3.7384575E1,4.6674202E1,2.4507268E2,1.1929775E1,3.4744423E1,8.481694E1,6.3908777E2,2.1298164E2,4E0],"tree_param":{"num_deleted":"0","num_feature":"27","num_nodes":"101","size_leaf_vector":"1"}},{"base_weights":[-1.0137901E-3,-1.3677695E0,1.0381933E0,4.693099E-1,1.8546845E0,-2.1497943E0,-6.061481E-1,-3.9007638E0,-1.8858957E0,2.5754719E0,1.3510743E0,-1.5074569E0,-2.8868785E0,-2.4545472E0,-1.033789E0,2.2584417E0,-1.2340808E0,2.8259618E0,3.9610425E-1,2.1342897E0,3.9100654E0,4.0341988E0,1.5801766E0,-4.2010665E-2,-3.223686E0,-7.56061E-1,4.3621723E-2,-2.2172059E-1,-1.0905344E0,-2.32972E-1,6.95312E-2,2.9593053E0,9.98425E-1,-3.1963108E0,-2.301193E-3,-4.3456273E0,-1.9808638E0,1.3164952E-1,-1.3672955E0,1.9974189E0,5.691531E0,1.8223329E-1,-3.1593144E-2,2.9082587E0,3.1057802E-1,1.5428081E-1,3.0167133E-1,-1.4300005E-1,-5.5466847E0,-5.7607938E-2,-1.8981677E-1,-2.0118687E-1,-5.5724148E-2,1.353171E-1,1.1483302E0,2.106996E-1,5.979794E-1,-4.420146E-1,-6.396705E-2,8.0437165E-1,2.0684512E0,1.3287119E0,-6.3159853E-1,4.246691E0,1.2853618E0,-4.0565748E-2,4.4388863E-1,2.6433107E-1,4.2370437E-3,5.4825414E-2,5.6150854E-1,-4.1306198E-2,6.932451E-2,1.559955E-1,-3.6614838E-1,5.4201016E0,8.0977276E-4,4.025189E-1,6.1204724E-2,1.7471278E-1,-9.3269095E-2,3.9182332E-1,-3.7633017E-2,4.0792022E-2,3.0052966E-1,-4.7602615E0,-4.3210664E-1,-2.6190987E-1,1.8085755E-1,3.8134563E-1,3.5046607E-1,4.5781994E-1,-9.8157895E-1,-1.3051431E-1,3.4898467E-2,9.874721E-1,2.3360127E-1,-1.0565797E-1,2.191296E-2,-2.5738453E-4,8.925128E-2],"categories":[],"categories_nodes":[],"categories_segments":[],"categories_sizes":[],"default_left":[0,0,0,0,0,0,0,0,0,0,0,0,0,0,0,0,0,0,0,0,0,0,0,0,0,0,0,0,0,0,0,0,0,0,0,0,0,0,0,0,0,0,0,0,0,0,0,0,0,0,0,0,0,0,0,0,0,0,0,0,0,0,0,0,0,0,0,0,0,0,0,0,0,0,0,0,0,0,0,0,0,0,0,0,0,0,0,0,0,0,0,0,0,0,0,0,0,0,0,0,0],"id":15,"left_children":[1,5,3,17,9,7,25,27,11,19,53,13,33,23,15,75,37,73,89,21,45,43,31,-1,49,71,-1,-1,29,-1,-1,39,83,35,-1,47,51,-1,57,41,55,-1,-1,79,-1,-1,-1,-1,85,-1,-1,-1,-1,-1,59,-1,-1,-1,-1,61,63,77,65,67,69,-1,-1,-1,-1,-1,-1,-1,-1,-1,-1,81,-1,-1,-1,-1,-1,-1,-1,-1,-1,87,-1,-1,-1,91,-1,95,93,-1,-1,99,97,-1,-1,-1,-1],"loss_changes":[1.1320519E4,2.0504346E3,2.1030503E3,4.6036047E2,6.748872E2,7.848584E2,3.9125842E2,3.904353E2,5.5915234E2,4.502622E2,3.130426E2,4.80511E2,3.558579E2,4.3866406E2,4.7083093E2,2.9024542E2,3.5157227E2,2.9631848E2,2.58082E2,6.05052E2,3.249624E2,3.3673804E2,3.569923E2,0E0,3.2105835E2,2.9938153E2,0E0,0E0,3.7199695E2,0E0,0E0,3.4692676E2,2.6655997E2,5.101101E2,0E0,3.2168018E2,3.1818097E2,0E0,3.076089E2,4.4422342E2,3.114331E2,0E0,0E0,2.758672E2,0E0,0E0,0E0,0E0,2.6226855E2,0E0,0E0,0E0,0E0,0E0,3.0286353E2,0E0,0E0,0E0,0E0,5.244792E2,4.4416333E2,2.7947205E2,3.545265E2,3.2893127E2,3.2425153E2,0E0,0E0,0E0,0E0,0E0,0E0,0E0,0E0,0E0,0E0,2.709234E2,0E0,0E0,0E0,0E0,0E0,0E0,0E0,0E0,0E0,4.0644666E2,0E0,0E0,0E0,2.6916208E2,0E0,2.903883E2,3.909431E2,0E0,0E0,6.0222107E2,8.772031E2,0E0,0E0,0E0,0E0],"parents":[2147483647,0,0,2,2,1,1,5,5,4,4,8,8,11,11,14,14,3,3,9,9,19,19,13,13,6,6,7,7,28,28,22,22,12,12,33,33,16,16,31,31,39,39,21,21,20,20,35,35,24,24,36,36,10,10,40,40,38,38,54,54,59,59,60,60,62,62,63,63,64,64,25,25,17,17,15,15,61,61,43,43,75,75,32,32,48,48,85,85,18,18,89,89,92,92,91,91,96,96,95,95],"right_children":[2,6,4,18,10,8,26,28,12,20,54,14,34,24,16,76,38,74,90,22,46,44,32,-1,50,72,-1,-1,30,-1,-1,40,84,36,-1,48,52,-1,58,42,56,-1,-1,80,-1,-1,-1,-1,86,-1,-1,-1,-1,-1,60,-1,-1,-1,-1,62,64,78,66,68,70,-1,-1,-1,-1,-1,-1,-1,-1,-1,-1,82,-1,-1,-1,-1,-1,-1,-1,-1,-1,88,-1,-1,-1,92,-1,96,94,-1,-1,100,98,-1,-1,-1,-1],"split_conditions":[-8.811214E-1,-4.0129213E0,3.6789217E0,-2.8940907E0,8E0,2E0,1.8E1,